digraph Tree {
node [shape=box] ;
0 [label="X[1] <= 10.917\ngini = 0.443\nsamples = 2938\nvalue = [973, 1965]"] ;
1 [label="X[1] <= 9.767\ngini = 0.496\nsamples = 1915\nvalue = [872, 1043]"] ;
0 -> 1 [labeldistance=2.5, labelangle=45, headlabel="True"] ;
2 [label="X[0] <= 12.125\ngini = 0.497\nsamples = 1014\nvalue = [545, 469]"] ;
1 -> 2 ;
3 [label="X[1] <= 8.85\ngini = 0.477\nsamples = 629\nvalue = [382, 247]"] ;
2 -> 3 ;
4 [label="X[0] <= 12.05\ngini = 0.222\nsamples = 55\nvalue = [48, 7]"] ;
3 -> 4 ;
5 [label="X[0] <= 8.95\ngini = 0.201\nsamples = 53\nvalue = [47, 6]"] ;
4 -> 5 ;
6 [label="X[0] <= 8.1\ngini = 0.287\nsamples = 23\nvalue = [19, 4]"] ;
5 -> 6 ;
7 [label="X[1] <= 8.75\ngini = 0.18\nsamples = 20\nvalue = [18, 2]"] ;
6 -> 7 ;
8 [label="X[1] <= 8.55\ngini = 0.298\nsamples = 11\nvalue = [9, 2]"] ;
7 -> 8 ;
9 [label="gini = 0.0\nsamples = 3\nvalue = [3, 0]"] ;
8 -> 9 ;
10 [label="X[0] <= 4.55\ngini = 0.375\nsamples = 8\nvalue = [6, 2]"] ;
8 -> 10 ;
11 [label="X[0] <= 2.2\ngini = 0.278\nsamples = 6\nvalue = [5, 1]"] ;
10 -> 11 ;
12 [label="gini = 0.444\nsamples = 3\nvalue = [2, 1]"] ;
11 -> 12 ;
13 [label="gini = 0.0\nsamples = 3\nvalue = [3, 0]"] ;
11 -> 13 ;
14 [label="X[0] <= 6.25\ngini = 0.5\nsamples = 2\nvalue = [1, 1]"] ;
10 -> 14 ;
15 [label="gini = 0.0\nsamples = 1\nvalue = [0, 1]"] ;
14 -> 15 ;
16 [label="gini = 0.0\nsamples = 1\nvalue = [1, 0]"] ;
14 -> 16 ;
17 [label="gini = 0.0\nsamples = 9\nvalue = [9, 0]"] ;
7 -> 17 ;
18 [label="X[0] <= 8.55\ngini = 0.444\nsamples = 3\nvalue = [1, 2]"] ;
6 -> 18 ;
19 [label="gini = 0.0\nsamples = 1\nvalue = [0, 1]"] ;
18 -> 19 ;
20 [label="X[0] <= 8.7\ngini = 0.5\nsamples = 2\nvalue = [1, 1]"] ;
18 -> 20 ;
21 [label="gini = 0.0\nsamples = 1\nvalue = [1, 0]"] ;
20 -> 21 ;
22 [label="gini = 0.0\nsamples = 1\nvalue = [0, 1]"] ;
20 -> 22 ;
23 [label="X[0] <= 10.95\ngini = 0.124\nsamples = 30\nvalue = [28, 2]"] ;
5 -> 23 ;
24 [label="gini = 0.0\nsamples = 11\nvalue = [11, 0]"] ;
23 -> 24 ;
25 [label="X[1] <= 8.75\ngini = 0.188\nsamples = 19\nvalue = [17, 2]"] ;
23 -> 25 ;
26 [label="X[1] <= 8.65\ngini = 0.245\nsamples = 14\nvalue = [12, 2]"] ;
25 -> 26 ;
27 [label="gini = 0.0\nsamples = 3\nvalue = [3, 0]"] ;
26 -> 27 ;
28 [label="X[0] <= 11.875\ngini = 0.298\nsamples = 11\nvalue = [9, 2]"] ;
26 -> 28 ;
29 [label="X[0] <= 11.5\ngini = 0.32\nsamples = 10\nvalue = [8, 2]"] ;
28 -> 29 ;
30 [label="X[0] <= 11.05\ngini = 0.245\nsamples = 7\nvalue = [6, 1]"] ;
29 -> 30 ;
31 [label="gini = 0.375\nsamples = 4\nvalue = [3, 1]"] ;
30 -> 31 ;
32 [label="gini = 0.0\nsamples = 3\nvalue = [3, 0]"] ;
30 -> 32 ;
33 [label="gini = 0.444\nsamples = 3\nvalue = [2, 1]"] ;
29 -> 33 ;
34 [label="gini = 0.0\nsamples = 1\nvalue = [1, 0]"] ;
28 -> 34 ;
35 [label="gini = 0.0\nsamples = 5\nvalue = [5, 0]"] ;
25 -> 35 ;
36 [label="gini = 0.5\nsamples = 2\nvalue = [1, 1]"] ;
4 -> 36 ;
37 [label="X[1] <= 9.517\ngini = 0.487\nsamples = 574\nvalue = [334, 240]"] ;
3 -> 37 ;
38 [label="X[1] <= 8.95\ngini = 0.475\nsamples = 458\nvalue = [280, 178]"] ;
37 -> 38 ;
39 [label="X[0] <= 7.85\ngini = 0.489\nsamples = 33\nvalue = [14, 19]"] ;
38 -> 39 ;
40 [label="X[0] <= 1.55\ngini = 0.298\nsamples = 11\nvalue = [9, 2]"] ;
39 -> 40 ;
41 [label="X[0] <= 1.3\ngini = 0.5\nsamples = 2\nvalue = [1, 1]"] ;
40 -> 41 ;
42 [label="gini = 0.0\nsamples = 1\nvalue = [1, 0]"] ;
41 -> 42 ;
43 [label="gini = 0.0\nsamples = 1\nvalue = [0, 1]"] ;
41 -> 43 ;
44 [label="X[0] <= 7.55\ngini = 0.198\nsamples = 9\nvalue = [8, 1]"] ;
40 -> 44 ;
45 [label="gini = 0.0\nsamples = 5\nvalue = [5, 0]"] ;
44 -> 45 ;
46 [label="X[0] <= 7.7\ngini = 0.375\nsamples = 4\nvalue = [3, 1]"] ;
44 -> 46 ;
47 [label="gini = 0.444\nsamples = 3\nvalue = [2, 1]"] ;
46 -> 47 ;
48 [label="gini = 0.0\nsamples = 1\nvalue = [1, 0]"] ;
46 -> 48 ;
49 [label="X[0] <= 10.2\ngini = 0.351\nsamples = 22\nvalue = [5, 17]"] ;
39 -> 49 ;
50 [label="X[0] <= 9.1\ngini = 0.469\nsamples = 8\nvalue = [3, 5]"] ;
49 -> 50 ;
51 [label="X[0] <= 8.0\ngini = 0.278\nsamples = 6\nvalue = [1, 5]"] ;
50 -> 51 ;
52 [label="gini = 0.0\nsamples = 1\nvalue = [0, 1]"] ;
51 -> 52 ;
53 [label="X[0] <= 8.3\ngini = 0.32\nsamples = 5\nvalue = [1, 4]"] ;
51 -> 53 ;
54 [label="gini = 0.375\nsamples = 4\nvalue = [1, 3]"] ;
53 -> 54 ;
55 [label="gini = 0.0\nsamples = 1\nvalue = [0, 1]"] ;
53 -> 55 ;
56 [label="gini = 0.0\nsamples = 2\nvalue = [2, 0]"] ;
50 -> 56 ;
57 [label="X[0] <= 11.6\ngini = 0.245\nsamples = 14\nvalue = [2, 12]"] ;
49 -> 57 ;
58 [label="gini = 0.0\nsamples = 5\nvalue = [0, 5]"] ;
57 -> 58 ;
59 [label="X[0] <= 11.85\ngini = 0.346\nsamples = 9\nvalue = [2, 7]"] ;
57 -> 59 ;
60 [label="gini = 0.48\nsamples = 5\nvalue = [2, 3]"] ;
59 -> 60 ;
61 [label="gini = 0.0\nsamples = 4\nvalue = [0, 4]"] ;
59 -> 61 ;
62 [label="X[1] <= 9.05\ngini = 0.468\nsamples = 425\nvalue = [266, 159]"] ;
38 -> 62 ;
63 [label="X[0] <= 11.85\ngini = 0.298\nsamples = 44\nvalue = [36, 8]"] ;
62 -> 63 ;
64 [label="X[0] <= 1.55\ngini = 0.273\nsamples = 43\nvalue = [36, 7]"] ;
63 -> 64 ;
65 [label="X[0] <= 1.25\ngini = 0.5\nsamples = 4\nvalue = [2, 2]"] ;
64 -> 65 ;
66 [label="gini = 0.0\nsamples = 2\nvalue = [2, 0]"] ;
65 -> 66 ;
67 [label="gini = 0.0\nsamples = 2\nvalue = [0, 2]"] ;
65 -> 67 ;
68 [label="X[0] <= 10.65\ngini = 0.224\nsamples = 39\nvalue = [34, 5]"] ;
64 -> 68 ;
69 [label="X[0] <= 10.2\ngini = 0.264\nsamples = 32\nvalue = [27, 5]"] ;
68 -> 69 ;
70 [label="X[0] <= 7.75\ngini = 0.225\nsamples = 31\nvalue = [27, 4]"] ;
69 -> 70 ;
71 [label="X[0] <= 7.35\ngini = 0.153\nsamples = 24\nvalue = [22, 2]"] ;
70 -> 71 ;
72 [label="X[0] <= 6.35\ngini = 0.219\nsamples = 16\nvalue = [14, 2]"] ;
71 -> 72 ;
73 [label="X[0] <= 4.0\ngini = 0.133\nsamples = 14\nvalue = [13, 1]"] ;
72 -> 73 ;
74 [label="X[0] <= 3.15\ngini = 0.278\nsamples = 6\nvalue = [5, 1]"] ;
73 -> 74 ;
75 [label="gini = 0.0\nsamples = 5\nvalue = [5, 0]"] ;
74 -> 75 ;
76 [label="gini = 0.0\nsamples = 1\nvalue = [0, 1]"] ;
74 -> 76 ;
77 [label="gini = 0.0\nsamples = 8\nvalue = [8, 0]"] ;
73 -> 77 ;
78 [label="gini = 0.5\nsamples = 2\nvalue = [1, 1]"] ;
72 -> 78 ;
79 [label="gini = 0.0\nsamples = 8\nvalue = [8, 0]"] ;
71 -> 79 ;
80 [label="X[0] <= 7.85\ngini = 0.408\nsamples = 7\nvalue = [5, 2]"] ;
70 -> 80 ;
81 [label="gini = 0.444\nsamples = 3\nvalue = [1, 2]"] ;
80 -> 81 ;
82 [label="gini = 0.0\nsamples = 4\nvalue = [4, 0]"] ;
80 -> 82 ;
83 [label="gini = 0.0\nsamples = 1\nvalue = [0, 1]"] ;
69 -> 83 ;
84 [label="gini = 0.0\nsamples = 7\nvalue = [7, 0]"] ;
68 -> 84 ;
85 [label="gini = 0.0\nsamples = 1\nvalue = [0, 1]"] ;
63 -> 85 ;
86 [label="X[0] <= 12.05\ngini = 0.479\nsamples = 381\nvalue = [230, 151]"] ;
62 -> 86 ;
87 [label="X[0] <= 10.75\ngini = 0.481\nsamples = 376\nvalue = [225, 151]"] ;
86 -> 87 ;
88 [label="X[0] <= 7.95\ngini = 0.475\nsamples = 345\nvalue = [211, 134]"] ;
87 -> 88 ;
89 [label="X[0] <= 2.15\ngini = 0.489\nsamples = 245\nvalue = [141, 104]"] ;
88 -> 89 ;
90 [label="X[0] <= 1.85\ngini = 0.458\nsamples = 93\nvalue = [60, 33]"] ;
89 -> 90 ;
91 [label="X[0] <= 0.85\ngini = 0.469\nsamples = 88\nvalue = [55, 33]"] ;
90 -> 91 ;
92 [label="X[0] <= 0.75\ngini = 0.245\nsamples = 7\nvalue = [6, 1]"] ;
91 -> 92 ;
93 [label="gini = 0.0\nsamples = 1\nvalue = [0, 1]"] ;
92 -> 93 ;
94 [label="gini = 0.0\nsamples = 6\nvalue = [6, 0]"] ;
92 -> 94 ;
95 [label="X[0] <= 0.95\ngini = 0.478\nsamples = 81\nvalue = [49, 32]"] ;
91 -> 95 ;
96 [label="X[1] <= 9.45\ngini = 0.375\nsamples = 4\nvalue = [1, 3]"] ;
95 -> 96 ;
97 [label="gini = 0.0\nsamples = 2\nvalue = [0, 2]"] ;
96 -> 97 ;
98 [label="gini = 0.5\nsamples = 2\nvalue = [1, 1]"] ;
96 -> 98 ;
99 [label="X[0] <= 1.675\ngini = 0.47\nsamples = 77\nvalue = [48, 29]"] ;
95 -> 99 ;
100 [label="X[0] <= 1.55\ngini = 0.461\nsamples = 72\nvalue = [46, 26]"] ;
99 -> 100 ;
101 [label="X[0] <= 1.425\ngini = 0.479\nsamples = 63\nvalue = [38, 25]"] ;
100 -> 101 ;
102 [label="X[1] <= 9.15\ngini = 0.466\nsamples = 54\nvalue = [34, 20]"] ;
101 -> 102 ;
103 [label="X[0] <= 1.15\ngini = 0.48\nsamples = 5\nvalue = [2, 3]"] ;
102 -> 103 ;
104 [label="gini = 0.444\nsamples = 3\nvalue = [1, 2]"] ;
103 -> 104 ;
105 [label="gini = 0.5\nsamples = 2\nvalue = [1, 1]"] ;
103 -> 105 ;
106 [label="X[1] <= 9.45\ngini = 0.453\nsamples = 49\nvalue = [32, 17]"] ;
102 -> 106 ;
107 [label="X[1] <= 9.35\ngini = 0.469\nsamples = 32\nvalue = [20, 12]"] ;
106 -> 107 ;
108 [label="X[0] <= 1.05\ngini = 0.444\nsamples = 21\nvalue = [14, 7]"] ;
107 -> 108 ;
109 [label="gini = 0.0\nsamples = 2\nvalue = [2, 0]"] ;
108 -> 109 ;
110 [label="X[1] <= 9.25\ngini = 0.465\nsamples = 19\nvalue = [12, 7]"] ;
108 -> 110 ;
111 [label="X[0] <= 1.25\ngini = 0.486\nsamples = 12\nvalue = [7, 5]"] ;
110 -> 111 ;
112 [label="X[0] <= 1.15\ngini = 0.408\nsamples = 7\nvalue = [5, 2]"] ;
111 -> 112 ;
113 [label="gini = 0.444\nsamples = 3\nvalue = [2, 1]"] ;
112 -> 113 ;
114 [label="gini = 0.375\nsamples = 4\nvalue = [3, 1]"] ;
112 -> 114 ;
115 [label="X[0] <= 1.35\ngini = 0.48\nsamples = 5\nvalue = [2, 3]"] ;
111 -> 115 ;
116 [label="gini = 0.444\nsamples = 3\nvalue = [1, 2]"] ;
115 -> 116 ;
117 [label="gini = 0.5\nsamples = 2\nvalue = [1, 1]"] ;
115 -> 117 ;
118 [label="X[0] <= 1.25\ngini = 0.408\nsamples = 7\nvalue = [5, 2]"] ;
110 -> 118 ;
119 [label="gini = 0.48\nsamples = 5\nvalue = [3, 2]"] ;
118 -> 119 ;
120 [label="gini = 0.0\nsamples = 2\nvalue = [2, 0]"] ;
118 -> 120 ;
121 [label="X[0] <= 1.1\ngini = 0.496\nsamples = 11\nvalue = [6, 5]"] ;
107 -> 121 ;
122 [label="gini = 0.0\nsamples = 2\nvalue = [0, 2]"] ;
121 -> 122 ;
123 [label="X[0] <= 1.25\ngini = 0.444\nsamples = 9\nvalue = [6, 3]"] ;
121 -> 123 ;
124 [label="gini = 0.48\nsamples = 5\nvalue = [3, 2]"] ;
123 -> 124 ;
125 [label="X[0] <= 1.35\ngini = 0.375\nsamples = 4\nvalue = [3, 1]"] ;
123 -> 125 ;
126 [label="gini = 0.0\nsamples = 1\nvalue = [1, 0]"] ;
125 -> 126 ;
127 [label="gini = 0.444\nsamples = 3\nvalue = [2, 1]"] ;
125 -> 127 ;
128 [label="X[0] <= 1.35\ngini = 0.415\nsamples = 17\nvalue = [12, 5]"] ;
106 -> 128 ;
129 [label="X[0] <= 1.15\ngini = 0.219\nsamples = 8\nvalue = [7, 1]"] ;
128 -> 129 ;
130 [label="X[0] <= 1.05\ngini = 0.444\nsamples = 3\nvalue = [2, 1]"] ;
129 -> 130 ;
131 [label="gini = 0.0\nsamples = 1\nvalue = [1, 0]"] ;
130 -> 131 ;
132 [label="gini = 0.5\nsamples = 2\nvalue = [1, 1]"] ;
130 -> 132 ;
133 [label="gini = 0.0\nsamples = 5\nvalue = [5, 0]"] ;
129 -> 133 ;
134 [label="gini = 0.494\nsamples = 9\nvalue = [5, 4]"] ;
128 -> 134 ;
135 [label="X[0] <= 1.475\ngini = 0.494\nsamples = 9\nvalue = [4, 5]"] ;
101 -> 135 ;
136 [label="gini = 0.0\nsamples = 1\nvalue = [0, 1]"] ;
135 -> 136 ;
137 [label="X[1] <= 9.35\ngini = 0.5\nsamples = 8\nvalue = [4, 4]"] ;
135 -> 137 ;
138 [label="X[1] <= 9.25\ngini = 0.444\nsamples = 3\nvalue = [1, 2]"] ;
137 -> 138 ;
139 [label="gini = 0.5\nsamples = 2\nvalue = [1, 1]"] ;
138 -> 139 ;
140 [label="gini = 0.0\nsamples = 1\nvalue = [0, 1]"] ;
138 -> 140 ;
141 [label="X[1] <= 9.45\ngini = 0.48\nsamples = 5\nvalue = [3, 2]"] ;
137 -> 141 ;
142 [label="gini = 0.5\nsamples = 2\nvalue = [1, 1]"] ;
141 -> 142 ;
143 [label="gini = 0.444\nsamples = 3\nvalue = [2, 1]"] ;
141 -> 143 ;
144 [label="X[1] <= 9.45\ngini = 0.198\nsamples = 9\nvalue = [8, 1]"] ;
100 -> 144 ;
145 [label="gini = 0.0\nsamples = 8\nvalue = [8, 0]"] ;
144 -> 145 ;
146 [label="gini = 0.0\nsamples = 1\nvalue = [0, 1]"] ;
144 -> 146 ;
147 [label="X[1] <= 9.3\ngini = 0.48\nsamples = 5\nvalue = [2, 3]"] ;
99 -> 147 ;
148 [label="gini = 0.0\nsamples = 2\nvalue = [0, 2]"] ;
147 -> 148 ;
149 [label="X[1] <= 9.45\ngini = 0.444\nsamples = 3\nvalue = [2, 1]"] ;
147 -> 149 ;
150 [label="gini = 0.0\nsamples = 1\nvalue = [1, 0]"] ;
149 -> 150 ;
151 [label="gini = 0.5\nsamples = 2\nvalue = [1, 1]"] ;
149 -> 151 ;
152 [label="gini = 0.0\nsamples = 5\nvalue = [5, 0]"] ;
90 -> 152 ;
153 [label="X[1] <= 9.15\ngini = 0.498\nsamples = 152\nvalue = [81, 71]"] ;
89 -> 153 ;
154 [label="X[0] <= 7.1\ngini = 0.391\nsamples = 15\nvalue = [11, 4]"] ;
153 -> 154 ;
155 [label="X[0] <= 4.8\ngini = 0.494\nsamples = 9\nvalue = [5, 4]"] ;
154 -> 155 ;
156 [label="X[0] <= 3.55\ngini = 0.32\nsamples = 5\nvalue = [4, 1]"] ;
155 -> 156 ;
157 [label="X[0] <= 2.85\ngini = 0.5\nsamples = 2\nvalue = [1, 1]"] ;
156 -> 157 ;
158 [label="gini = 0.0\nsamples = 1\nvalue = [1, 0]"] ;
157 -> 158 ;
159 [label="gini = 0.0\nsamples = 1\nvalue = [0, 1]"] ;
157 -> 159 ;
160 [label="gini = 0.0\nsamples = 3\nvalue = [3, 0]"] ;
156 -> 160 ;
161 [label="X[0] <= 5.75\ngini = 0.375\nsamples = 4\nvalue = [1, 3]"] ;
155 -> 161 ;
162 [label="gini = 0.0\nsamples = 2\nvalue = [0, 2]"] ;
161 -> 162 ;
163 [label="X[0] <= 6.45\ngini = 0.5\nsamples = 2\nvalue = [1, 1]"] ;
161 -> 163 ;
164 [label="gini = 0.0\nsamples = 1\nvalue = [1, 0]"] ;
163 -> 164 ;
165 [label="gini = 0.0\nsamples = 1\nvalue = [0, 1]"] ;
163 -> 165 ;
166 [label="gini = 0.0\nsamples = 6\nvalue = [6, 0]"] ;
154 -> 166 ;
167 [label="X[0] <= 2.45\ngini = 0.5\nsamples = 137\nvalue = [70, 67]"] ;
153 -> 167 ;
168 [label="X[1] <= 9.45\ngini = 0.444\nsamples = 9\nvalue = [3, 6]"] ;
167 -> 168 ;
169 [label="X[1] <= 9.25\ngini = 0.245\nsamples = 7\nvalue = [1, 6]"] ;
168 -> 169 ;
170 [label="gini = 0.0\nsamples = 4\nvalue = [0, 4]"] ;
169 -> 170 ;
171 [label="X[0] <= 2.3\ngini = 0.444\nsamples = 3\nvalue = [1, 2]"] ;
169 -> 171 ;
172 [label="gini = 0.0\nsamples = 2\nvalue = [0, 2]"] ;
171 -> 172 ;
173 [label="gini = 0.0\nsamples = 1\nvalue = [1, 0]"] ;
171 -> 173 ;
174 [label="gini = 0.0\nsamples = 2\nvalue = [2, 0]"] ;
168 -> 174 ;
175 [label="X[0] <= 5.2\ngini = 0.499\nsamples = 128\nvalue = [67, 61]"] ;
167 -> 175 ;
176 [label="X[1] <= 9.25\ngini = 0.48\nsamples = 50\nvalue = [30, 20]"] ;
175 -> 176 ;
177 [label="X[0] <= 3.4\ngini = 0.153\nsamples = 12\nvalue = [11, 1]"] ;
176 -> 177 ;
178 [label="X[0] <= 3.05\ngini = 0.444\nsamples = 3\nvalue = [2, 1]"] ;
177 -> 178 ;
179 [label="gini = 0.0\nsamples = 2\nvalue = [2, 0]"] ;
178 -> 179 ;
180 [label="gini = 0.0\nsamples = 1\nvalue = [0, 1]"] ;
178 -> 180 ;
181 [label="gini = 0.0\nsamples = 9\nvalue = [9, 0]"] ;
177 -> 181 ;
182 [label="X[0] <= 4.7\ngini = 0.5\nsamples = 38\nvalue = [19, 19]"] ;
176 -> 182 ;
183 [label="X[0] <= 3.7\ngini = 0.48\nsamples = 25\nvalue = [10, 15]"] ;
182 -> 183 ;
184 [label="X[0] <= 3.35\ngini = 0.473\nsamples = 13\nvalue = [8, 5]"] ;
183 -> 184 ;
185 [label="X[0] <= 3.05\ngini = 0.494\nsamples = 9\nvalue = [4, 5]"] ;
184 -> 185 ;
186 [label="X[1] <= 9.35\ngini = 0.49\nsamples = 7\nvalue = [4, 3]"] ;
185 -> 186 ;
187 [label="gini = 0.0\nsamples = 2\nvalue = [2, 0]"] ;
186 -> 187 ;
188 [label="X[0] <= 2.6\ngini = 0.48\nsamples = 5\nvalue = [2, 3]"] ;
186 -> 188 ;
189 [label="gini = 0.0\nsamples = 1\nvalue = [1, 0]"] ;
188 -> 189 ;
190 [label="X[0] <= 2.75\ngini = 0.375\nsamples = 4\nvalue = [1, 3]"] ;
188 -> 190 ;
191 [label="gini = 0.0\nsamples = 1\nvalue = [0, 1]"] ;
190 -> 191 ;
192 [label="X[1] <= 9.45\ngini = 0.444\nsamples = 3\nvalue = [1, 2]"] ;
190 -> 192 ;
193 [label="gini = 0.0\nsamples = 1\nvalue = [0, 1]"] ;
192 -> 193 ;
194 [label="gini = 0.5\nsamples = 2\nvalue = [1, 1]"] ;
192 -> 194 ;
195 [label="gini = 0.0\nsamples = 2\nvalue = [0, 2]"] ;
185 -> 195 ;
196 [label="gini = 0.0\nsamples = 4\nvalue = [4, 0]"] ;
184 -> 196 ;
197 [label="X[1] <= 9.45\ngini = 0.278\nsamples = 12\nvalue = [2, 10]"] ;
183 -> 197 ;
198 [label="gini = 0.0\nsamples = 9\nvalue = [0, 9]"] ;
197 -> 198 ;
199 [label="X[0] <= 4.15\ngini = 0.444\nsamples = 3\nvalue = [2, 1]"] ;
197 -> 199 ;
200 [label="gini = 0.0\nsamples = 1\nvalue = [1, 0]"] ;
199 -> 200 ;
201 [label="X[0] <= 4.45\ngini = 0.5\nsamples = 2\nvalue = [1, 1]"] ;
199 -> 201 ;
202 [label="gini = 0.0\nsamples = 1\nvalue = [0, 1]"] ;
201 -> 202 ;
203 [label="gini = 0.0\nsamples = 1\nvalue = [1, 0]"] ;
201 -> 203 ;
204 [label="X[1] <= 9.45\ngini = 0.426\nsamples = 13\nvalue = [9, 4]"] ;
182 -> 204 ;
205 [label="X[0] <= 5.05\ngini = 0.298\nsamples = 11\nvalue = [9, 2]"] ;
204 -> 205 ;
206 [label="X[0] <= 4.85\ngini = 0.18\nsamples = 10\nvalue = [9, 1]"] ;
205 -> 206 ;
207 [label="X[1] <= 9.35\ngini = 0.278\nsamples = 6\nvalue = [5, 1]"] ;
206 -> 207 ;
208 [label="gini = 0.0\nsamples = 2\nvalue = [2, 0]"] ;
207 -> 208 ;
209 [label="gini = 0.375\nsamples = 4\nvalue = [3, 1]"] ;
207 -> 209 ;
210 [label="gini = 0.0\nsamples = 4\nvalue = [4, 0]"] ;
206 -> 210 ;
211 [label="gini = 0.0\nsamples = 1\nvalue = [0, 1]"] ;
205 -> 211 ;
212 [label="gini = 0.0\nsamples = 2\nvalue = [0, 2]"] ;
204 -> 212 ;
213 [label="X[0] <= 5.85\ngini = 0.499\nsamples = 78\nvalue = [37, 41]"] ;
175 -> 213 ;
214 [label="X[0] <= 5.65\ngini = 0.408\nsamples = 7\nvalue = [2, 5]"] ;
213 -> 214 ;
215 [label="X[1] <= 9.4\ngini = 0.5\nsamples = 4\nvalue = [2, 2]"] ;
214 -> 215 ;
216 [label="X[0] <= 5.35\ngini = 0.444\nsamples = 3\nvalue = [1, 2]"] ;
215 -> 216 ;
217 [label="gini = 0.0\nsamples = 1\nvalue = [0, 1]"] ;
216 -> 217 ;
218 [label="X[0] <= 5.45\ngini = 0.5\nsamples = 2\nvalue = [1, 1]"] ;
216 -> 218 ;
219 [label="gini = 0.0\nsamples = 1\nvalue = [1, 0]"] ;
218 -> 219 ;
220 [label="gini = 0.0\nsamples = 1\nvalue = [0, 1]"] ;
218 -> 220 ;
221 [label="gini = 0.0\nsamples = 1\nvalue = [1, 0]"] ;
215 -> 221 ;
222 [label="gini = 0.0\nsamples = 3\nvalue = [0, 3]"] ;
214 -> 222 ;
223 [label="X[0] <= 5.975\ngini = 0.5\nsamples = 71\nvalue = [35, 36]"] ;
213 -> 223 ;
224 [label="gini = 0.0\nsamples = 2\nvalue = [2, 0]"] ;
223 -> 224 ;
225 [label="X[0] <= 6.35\ngini = 0.499\nsamples = 69\nvalue = [33, 36]"] ;
223 -> 225 ;
226 [label="X[1] <= 9.3\ngini = 0.32\nsamples = 5\nvalue = [1, 4]"] ;
225 -> 226 ;
227 [label="gini = 0.0\nsamples = 1\nvalue = [1, 0]"] ;
226 -> 227 ;
228 [label="gini = 0.0\nsamples = 4\nvalue = [0, 4]"] ;
226 -> 228 ;
229 [label="X[0] <= 7.05\ngini = 0.5\nsamples = 64\nvalue = [32, 32]"] ;
225 -> 229 ;
230 [label="X[1] <= 9.45\ngini = 0.459\nsamples = 14\nvalue = [9, 5]"] ;
229 -> 230 ;
231 [label="X[0] <= 6.85\ngini = 0.486\nsamples = 12\nvalue = [7, 5]"] ;
230 -> 231 ;
232 [label="X[0] <= 6.55\ngini = 0.5\nsamples = 10\nvalue = [5, 5]"] ;
231 -> 232 ;
233 [label="X[1] <= 9.3\ngini = 0.444\nsamples = 3\nvalue = [2, 1]"] ;
232 -> 233 ;
234 [label="gini = 0.0\nsamples = 1\nvalue = [1, 0]"] ;
233 -> 234 ;
235 [label="X[0] <= 6.45\ngini = 0.5\nsamples = 2\nvalue = [1, 1]"] ;
233 -> 235 ;
236 [label="gini = 0.0\nsamples = 1\nvalue = [0, 1]"] ;
235 -> 236 ;
237 [label="gini = 0.0\nsamples = 1\nvalue = [1, 0]"] ;
235 -> 237 ;
238 [label="X[1] <= 9.35\ngini = 0.49\nsamples = 7\nvalue = [3, 4]"] ;
232 -> 238 ;
239 [label="X[1] <= 9.25\ngini = 0.375\nsamples = 4\nvalue = [1, 3]"] ;
238 -> 239 ;
240 [label="gini = 0.0\nsamples = 1\nvalue = [0, 1]"] ;
239 -> 240 ;
241 [label="X[0] <= 6.7\ngini = 0.444\nsamples = 3\nvalue = [1, 2]"] ;
239 -> 241 ;
242 [label="gini = 0.0\nsamples = 1\nvalue = [0, 1]"] ;
241 -> 242 ;
243 [label="gini = 0.5\nsamples = 2\nvalue = [1, 1]"] ;
241 -> 243 ;
244 [label="X[0] <= 6.7\ngini = 0.444\nsamples = 3\nvalue = [2, 1]"] ;
238 -> 244 ;
245 [label="gini = 0.5\nsamples = 2\nvalue = [1, 1]"] ;
244 -> 245 ;
246 [label="gini = 0.0\nsamples = 1\nvalue = [1, 0]"] ;
244 -> 246 ;
247 [label="gini = 0.0\nsamples = 2\nvalue = [2, 0]"] ;
231 -> 247 ;
248 [label="gini = 0.0\nsamples = 2\nvalue = [2, 0]"] ;
230 -> 248 ;
249 [label="X[0] <= 7.475\ngini = 0.497\nsamples = 50\nvalue = [23, 27]"] ;
229 -> 249 ;
250 [label="X[1] <= 9.45\ngini = 0.466\nsamples = 27\nvalue = [10, 17]"] ;
249 -> 250 ;
251 [label="X[0] <= 7.25\ngini = 0.499\nsamples = 19\nvalue = [9, 10]"] ;
250 -> 251 ;
252 [label="X[0] <= 7.15\ngini = 0.473\nsamples = 13\nvalue = [8, 5]"] ;
251 -> 252 ;
253 [label="X[1] <= 9.3\ngini = 0.49\nsamples = 7\nvalue = [3, 4]"] ;
252 -> 253 ;
254 [label="gini = 0.48\nsamples = 5\nvalue = [2, 3]"] ;
253 -> 254 ;
255 [label="gini = 0.5\nsamples = 2\nvalue = [1, 1]"] ;
253 -> 255 ;
256 [label="X[1] <= 9.3\ngini = 0.278\nsamples = 6\nvalue = [5, 1]"] ;
252 -> 256 ;
257 [label="gini = 0.444\nsamples = 3\nvalue = [2, 1]"] ;
256 -> 257 ;
258 [label="gini = 0.0\nsamples = 3\nvalue = [3, 0]"] ;
256 -> 258 ;
259 [label="X[1] <= 9.35\ngini = 0.278\nsamples = 6\nvalue = [1, 5]"] ;
251 -> 259 ;
260 [label="gini = 0.0\nsamples = 3\nvalue = [0, 3]"] ;
259 -> 260 ;
261 [label="X[0] <= 7.375\ngini = 0.444\nsamples = 3\nvalue = [1, 2]"] ;
259 -> 261 ;
262 [label="gini = 0.5\nsamples = 2\nvalue = [1, 1]"] ;
261 -> 262 ;
263 [label="gini = 0.0\nsamples = 1\nvalue = [0, 1]"] ;
261 -> 263 ;
264 [label="X[0] <= 7.15\ngini = 0.219\nsamples = 8\nvalue = [1, 7]"] ;
250 -> 264 ;
265 [label="gini = 0.278\nsamples = 6\nvalue = [1, 5]"] ;
264 -> 265 ;
266 [label="gini = 0.0\nsamples = 2\nvalue = [0, 2]"] ;
264 -> 266 ;
267 [label="X[1] <= 9.25\ngini = 0.491\nsamples = 23\nvalue = [13, 10]"] ;
249 -> 267 ;
268 [label="X[0] <= 7.65\ngini = 0.444\nsamples = 6\nvalue = [2, 4]"] ;
267 -> 268 ;
269 [label="gini = 0.0\nsamples = 2\nvalue = [0, 2]"] ;
268 -> 269 ;
270 [label="X[0] <= 7.75\ngini = 0.5\nsamples = 4\nvalue = [2, 2]"] ;
268 -> 270 ;
271 [label="gini = 0.0\nsamples = 1\nvalue = [1, 0]"] ;
270 -> 271 ;
272 [label="gini = 0.444\nsamples = 3\nvalue = [1, 2]"] ;
270 -> 272 ;
273 [label="X[0] <= 7.85\ngini = 0.457\nsamples = 17\nvalue = [11, 6]"] ;
267 -> 273 ;
274 [label="X[1] <= 9.45\ngini = 0.32\nsamples = 10\nvalue = [8, 2]"] ;
273 -> 274 ;
275 [label="X[0] <= 7.65\ngini = 0.444\nsamples = 6\nvalue = [4, 2]"] ;
274 -> 275 ;
276 [label="gini = 0.0\nsamples = 2\nvalue = [2, 0]"] ;
275 -> 276 ;
277 [label="X[1] <= 9.35\ngini = 0.5\nsamples = 4\nvalue = [2, 2]"] ;
275 -> 277 ;
278 [label="gini = 0.0\nsamples = 1\nvalue = [1, 0]"] ;
277 -> 278 ;
279 [label="X[0] <= 7.75\ngini = 0.444\nsamples = 3\nvalue = [1, 2]"] ;
277 -> 279 ;
280 [label="gini = 0.0\nsamples = 1\nvalue = [0, 1]"] ;
279 -> 280 ;
281 [label="gini = 0.5\nsamples = 2\nvalue = [1, 1]"] ;
279 -> 281 ;
282 [label="gini = 0.0\nsamples = 4\nvalue = [4, 0]"] ;
274 -> 282 ;
283 [label="X[1] <= 9.45\ngini = 0.49\nsamples = 7\nvalue = [3, 4]"] ;
273 -> 283 ;
284 [label="X[1] <= 9.35\ngini = 0.375\nsamples = 4\nvalue = [3, 1]"] ;
283 -> 284 ;
285 [label="gini = 0.5\nsamples = 2\nvalue = [1, 1]"] ;
284 -> 285 ;
286 [label="gini = 0.0\nsamples = 2\nvalue = [2, 0]"] ;
284 -> 286 ;
287 [label="gini = 0.0\nsamples = 3\nvalue = [0, 3]"] ;
283 -> 287 ;
288 [label="X[1] <= 9.45\ngini = 0.42\nsamples = 100\nvalue = [70, 30]"] ;
88 -> 288 ;
289 [label="X[1] <= 9.35\ngini = 0.365\nsamples = 79\nvalue = [60, 19]"] ;
288 -> 289 ;
290 [label="X[0] <= 9.075\ngini = 0.44\nsamples = 52\nvalue = [35, 17]"] ;
289 -> 290 ;
291 [label="X[0] <= 8.85\ngini = 0.311\nsamples = 26\nvalue = [21, 5]"] ;
290 -> 291 ;
292 [label="X[0] <= 8.75\ngini = 0.375\nsamples = 20\nvalue = [15, 5]"] ;
291 -> 292 ;
293 [label="X[1] <= 9.15\ngini = 0.305\nsamples = 16\nvalue = [13, 3]"] ;
292 -> 293 ;
294 [label="X[0] <= 8.35\ngini = 0.5\nsamples = 4\nvalue = [2, 2]"] ;
293 -> 294 ;
295 [label="gini = 0.0\nsamples = 2\nvalue = [0, 2]"] ;
294 -> 295 ;
296 [label="gini = 0.0\nsamples = 2\nvalue = [2, 0]"] ;
294 -> 296 ;
297 [label="X[0] <= 8.25\ngini = 0.153\nsamples = 12\nvalue = [11, 1]"] ;
293 -> 297 ;
298 [label="gini = 0.0\nsamples = 5\nvalue = [5, 0]"] ;
297 -> 298 ;
299 [label="X[0] <= 8.4\ngini = 0.245\nsamples = 7\nvalue = [6, 1]"] ;
297 -> 299 ;
300 [label="gini = 0.32\nsamples = 5\nvalue = [4, 1]"] ;
299 -> 300 ;
301 [label="gini = 0.0\nsamples = 2\nvalue = [2, 0]"] ;
299 -> 301 ;
302 [label="X[1] <= 9.15\ngini = 0.5\nsamples = 4\nvalue = [2, 2]"] ;
292 -> 302 ;
303 [label="gini = 0.0\nsamples = 1\nvalue = [1, 0]"] ;
302 -> 303 ;
304 [label="X[1] <= 9.25\ngini = 0.444\nsamples = 3\nvalue = [1, 2]"] ;
302 -> 304 ;
305 [label="gini = 0.0\nsamples = 1\nvalue = [0, 1]"] ;
304 -> 305 ;
306 [label="gini = 0.5\nsamples = 2\nvalue = [1, 1]"] ;
304 -> 306 ;
307 [label="gini = 0.0\nsamples = 6\nvalue = [6, 0]"] ;
291 -> 307 ;
308 [label="X[0] <= 9.8\ngini = 0.497\nsamples = 26\nvalue = [14, 12]"] ;
290 -> 308 ;
309 [label="X[1] <= 9.15\ngini = 0.48\nsamples = 10\nvalue = [4, 6]"] ;
308 -> 309 ;
310 [label="X[0] <= 9.45\ngini = 0.48\nsamples = 5\nvalue = [3, 2]"] ;
309 -> 310 ;
311 [label="gini = 0.444\nsamples = 3\nvalue = [2, 1]"] ;
310 -> 311 ;
312 [label="gini = 0.5\nsamples = 2\nvalue = [1, 1]"] ;
310 -> 312 ;
313 [label="X[1] <= 9.25\ngini = 0.32\nsamples = 5\nvalue = [1, 4]"] ;
309 -> 313 ;
314 [label="gini = 0.0\nsamples = 3\nvalue = [0, 3]"] ;
313 -> 314 ;
315 [label="gini = 0.5\nsamples = 2\nvalue = [1, 1]"] ;
313 -> 315 ;
316 [label="X[0] <= 10.15\ngini = 0.469\nsamples = 16\nvalue = [10, 6]"] ;
308 -> 316 ;
317 [label="gini = 0.0\nsamples = 2\nvalue = [2, 0]"] ;
316 -> 317 ;
318 [label="X[0] <= 10.25\ngini = 0.49\nsamples = 14\nvalue = [8, 6]"] ;
316 -> 318 ;
319 [label="gini = 0.0\nsamples = 1\nvalue = [0, 1]"] ;
318 -> 319 ;
320 [label="X[1] <= 9.15\ngini = 0.473\nsamples = 13\nvalue = [8, 5]"] ;
318 -> 320 ;
321 [label="X[0] <= 10.65\ngini = 0.48\nsamples = 5\nvalue = [2, 3]"] ;
320 -> 321 ;
322 [label="X[0] <= 10.35\ngini = 0.444\nsamples = 3\nvalue = [2, 1]"] ;
321 -> 322 ;
323 [label="gini = 0.0\nsamples = 1\nvalue = [0, 1]"] ;
322 -> 323 ;
324 [label="gini = 0.0\nsamples = 2\nvalue = [2, 0]"] ;
322 -> 324 ;
325 [label="gini = 0.0\nsamples = 2\nvalue = [0, 2]"] ;
321 -> 325 ;
326 [label="X[1] <= 9.25\ngini = 0.375\nsamples = 8\nvalue = [6, 2]"] ;
320 -> 326 ;
327 [label="gini = 0.0\nsamples = 3\nvalue = [3, 0]"] ;
326 -> 327 ;
328 [label="X[0] <= 10.5\ngini = 0.48\nsamples = 5\nvalue = [3, 2]"] ;
326 -> 328 ;
329 [label="gini = 0.0\nsamples = 1\nvalue = [1, 0]"] ;
328 -> 329 ;
330 [label="X[0] <= 10.65\ngini = 0.5\nsamples = 4\nvalue = [2, 2]"] ;
328 -> 330 ;
331 [label="gini = 0.444\nsamples = 3\nvalue = [1, 2]"] ;
330 -> 331 ;
332 [label="gini = 0.0\nsamples = 1\nvalue = [1, 0]"] ;
330 -> 332 ;
333 [label="X[0] <= 8.6\ngini = 0.137\nsamples = 27\nvalue = [25, 2]"] ;
289 -> 333 ;
334 [label="X[0] <= 8.45\ngini = 0.346\nsamples = 9\nvalue = [7, 2]"] ;
333 -> 334 ;
335 [label="gini = 0.0\nsamples = 7\nvalue = [7, 0]"] ;
334 -> 335 ;
336 [label="gini = 0.0\nsamples = 2\nvalue = [0, 2]"] ;
334 -> 336 ;
337 [label="gini = 0.0\nsamples = 18\nvalue = [18, 0]"] ;
333 -> 337 ;
338 [label="X[0] <= 8.25\ngini = 0.499\nsamples = 21\nvalue = [10, 11]"] ;
288 -> 338 ;
339 [label="X[0] <= 8.15\ngini = 0.408\nsamples = 7\nvalue = [5, 2]"] ;
338 -> 339 ;
340 [label="gini = 0.0\nsamples = 1\nvalue = [1, 0]"] ;
339 -> 340 ;
341 [label="gini = 0.444\nsamples = 6\nvalue = [4, 2]"] ;
339 -> 341 ;
342 [label="X[0] <= 10.65\ngini = 0.459\nsamples = 14\nvalue = [5, 9]"] ;
338 -> 342 ;
343 [label="X[0] <= 10.2\ngini = 0.426\nsamples = 13\nvalue = [4, 9]"] ;
342 -> 343 ;
344 [label="X[0] <= 10.05\ngini = 0.48\nsamples = 10\nvalue = [4, 6]"] ;
343 -> 344 ;
345 [label="X[0] <= 8.9\ngini = 0.375\nsamples = 8\nvalue = [2, 6]"] ;
344 -> 345 ;
346 [label="X[0] <= 8.55\ngini = 0.48\nsamples = 5\nvalue = [2, 3]"] ;
345 -> 346 ;
347 [label="X[0] <= 8.4\ngini = 0.375\nsamples = 4\nvalue = [1, 3]"] ;
346 -> 347 ;
348 [label="gini = 0.0\nsamples = 1\nvalue = [0, 1]"] ;
347 -> 348 ;
349 [label="gini = 0.444\nsamples = 3\nvalue = [1, 2]"] ;
347 -> 349 ;
350 [label="gini = 0.0\nsamples = 1\nvalue = [1, 0]"] ;
346 -> 350 ;
351 [label="gini = 0.0\nsamples = 3\nvalue = [0, 3]"] ;
345 -> 351 ;
352 [label="gini = 0.0\nsamples = 2\nvalue = [2, 0]"] ;
344 -> 352 ;
353 [label="gini = 0.0\nsamples = 3\nvalue = [0, 3]"] ;
343 -> 353 ;
354 [label="gini = 0.0\nsamples = 1\nvalue = [1, 0]"] ;
342 -> 354 ;
355 [label="X[0] <= 11.05\ngini = 0.495\nsamples = 31\nvalue = [14, 17]"] ;
87 -> 355 ;
356 [label="gini = 0.0\nsamples = 5\nvalue = [0, 5]"] ;
355 -> 356 ;
357 [label="X[1] <= 9.35\ngini = 0.497\nsamples = 26\nvalue = [14, 12]"] ;
355 -> 357 ;
358 [label="X[0] <= 11.95\ngini = 0.426\nsamples = 13\nvalue = [9, 4]"] ;
357 -> 358 ;
359 [label="X[0] <= 11.4\ngini = 0.219\nsamples = 8\nvalue = [7, 1]"] ;
358 -> 359 ;
360 [label="gini = 0.0\nsamples = 1\nvalue = [0, 1]"] ;
359 -> 360 ;
361 [label="gini = 0.0\nsamples = 7\nvalue = [7, 0]"] ;
359 -> 361 ;
362 [label="X[1] <= 9.25\ngini = 0.48\nsamples = 5\nvalue = [2, 3]"] ;
358 -> 362 ;
363 [label="gini = 0.0\nsamples = 2\nvalue = [0, 2]"] ;
362 -> 363 ;
364 [label="gini = 0.444\nsamples = 3\nvalue = [2, 1]"] ;
362 -> 364 ;
365 [label="X[0] <= 11.25\ngini = 0.473\nsamples = 13\nvalue = [5, 8]"] ;
357 -> 365 ;
366 [label="X[1] <= 9.45\ngini = 0.444\nsamples = 6\nvalue = [4, 2]"] ;
365 -> 366 ;
367 [label="gini = 0.444\nsamples = 3\nvalue = [1, 2]"] ;
366 -> 367 ;
368 [label="gini = 0.0\nsamples = 3\nvalue = [3, 0]"] ;
366 -> 368 ;
369 [label="X[1] <= 9.45\ngini = 0.245\nsamples = 7\nvalue = [1, 6]"] ;
365 -> 369 ;
370 [label="gini = 0.0\nsamples = 3\nvalue = [0, 3]"] ;
369 -> 370 ;
371 [label="X[0] <= 11.45\ngini = 0.375\nsamples = 4\nvalue = [1, 3]"] ;
369 -> 371 ;
372 [label="gini = 0.0\nsamples = 2\nvalue = [0, 2]"] ;
371 -> 372 ;
373 [label="gini = 0.5\nsamples = 2\nvalue = [1, 1]"] ;
371 -> 373 ;
374 [label="gini = 0.0\nsamples = 5\nvalue = [5, 0]"] ;
86 -> 374 ;
375 [label="X[0] <= 9.05\ngini = 0.498\nsamples = 116\nvalue = [54, 62]"] ;
37 -> 375 ;
376 [label="X[0] <= 1.05\ngini = 0.5\nsamples = 98\nvalue = [50, 48]"] ;
375 -> 376 ;
377 [label="gini = 0.0\nsamples = 4\nvalue = [4, 0]"] ;
376 -> 377 ;
378 [label="X[0] <= 8.35\ngini = 0.5\nsamples = 94\nvalue = [46, 48]"] ;
376 -> 378 ;
379 [label="X[1] <= 9.575\ngini = 0.498\nsamples = 91\nvalue = [43, 48]"] ;
378 -> 379 ;
380 [label="gini = 0.0\nsamples = 3\nvalue = [0, 3]"] ;
379 -> 380 ;
381 [label="X[0] <= 7.75\ngini = 0.5\nsamples = 88\nvalue = [43, 45]"] ;
379 -> 381 ;
382 [label="X[0] <= 7.55\ngini = 0.497\nsamples = 78\nvalue = [36, 42]"] ;
381 -> 382 ;
383 [label="X[0] <= 1.25\ngini = 0.5\nsamples = 74\nvalue = [36, 38]"] ;
382 -> 383 ;
384 [label="X[1] <= 9.667\ngini = 0.32\nsamples = 5\nvalue = [1, 4]"] ;
383 -> 384 ;
385 [label="gini = 0.0\nsamples = 1\nvalue = [1, 0]"] ;
384 -> 385 ;
386 [label="gini = 0.0\nsamples = 4\nvalue = [0, 4]"] ;
384 -> 386 ;
387 [label="X[0] <= 2.05\ngini = 0.5\nsamples = 69\nvalue = [35, 34]"] ;
383 -> 387 ;
388 [label="X[0] <= 1.65\ngini = 0.48\nsamples = 25\nvalue = [15, 10]"] ;
387 -> 388 ;
389 [label="X[1] <= 9.65\ngini = 0.5\nsamples = 20\nvalue = [10, 10]"] ;
388 -> 389 ;
390 [label="X[0] <= 1.45\ngini = 0.486\nsamples = 12\nvalue = [5, 7]"] ;
389 -> 390 ;
391 [label="X[0] <= 1.35\ngini = 0.32\nsamples = 5\nvalue = [1, 4]"] ;
390 -> 391 ;
392 [label="gini = 0.444\nsamples = 3\nvalue = [1, 2]"] ;
391 -> 392 ;
393 [label="gini = 0.0\nsamples = 2\nvalue = [0, 2]"] ;
391 -> 393 ;
394 [label="X[0] <= 1.55\ngini = 0.49\nsamples = 7\nvalue = [4, 3]"] ;
390 -> 394 ;
395 [label="gini = 0.48\nsamples = 5\nvalue = [3, 2]"] ;
394 -> 395 ;
396 [label="gini = 0.5\nsamples = 2\nvalue = [1, 1]"] ;
394 -> 396 ;
397 [label="X[0] <= 1.45\ngini = 0.469\nsamples = 8\nvalue = [5, 3]"] ;
389 -> 397 ;
398 [label="gini = 0.0\nsamples = 2\nvalue = [2, 0]"] ;
397 -> 398 ;
399 [label="X[0] <= 1.55\ngini = 0.5\nsamples = 6\nvalue = [3, 3]"] ;
397 -> 399 ;
400 [label="gini = 0.444\nsamples = 3\nvalue = [1, 2]"] ;
399 -> 400 ;
401 [label="gini = 0.444\nsamples = 3\nvalue = [2, 1]"] ;
399 -> 401 ;
402 [label="gini = 0.0\nsamples = 5\nvalue = [5, 0]"] ;
388 -> 402 ;
403 [label="X[0] <= 3.1\ngini = 0.496\nsamples = 44\nvalue = [20, 24]"] ;
387 -> 403 ;
404 [label="gini = 0.0\nsamples = 5\nvalue = [0, 5]"] ;
403 -> 404 ;
405 [label="X[0] <= 5.0\ngini = 0.5\nsamples = 39\nvalue = [20, 19]"] ;
403 -> 405 ;
406 [label="X[0] <= 4.3\ngini = 0.463\nsamples = 11\nvalue = [4, 7]"] ;
405 -> 406 ;
407 [label="X[1] <= 9.65\ngini = 0.375\nsamples = 4\nvalue = [3, 1]"] ;
406 -> 407 ;
408 [label="gini = 0.0\nsamples = 1\nvalue = [1, 0]"] ;
407 -> 408 ;
409 [label="X[0] <= 4.1\ngini = 0.444\nsamples = 3\nvalue = [2, 1]"] ;
407 -> 409 ;
410 [label="gini = 0.5\nsamples = 2\nvalue = [1, 1]"] ;
409 -> 410 ;
411 [label="gini = 0.0\nsamples = 1\nvalue = [1, 0]"] ;
409 -> 411 ;
412 [label="X[0] <= 4.85\ngini = 0.245\nsamples = 7\nvalue = [1, 6]"] ;
406 -> 412 ;
413 [label="gini = 0.0\nsamples = 4\nvalue = [0, 4]"] ;
412 -> 413 ;
414 [label="gini = 0.444\nsamples = 3\nvalue = [1, 2]"] ;
412 -> 414 ;
415 [label="X[0] <= 5.25\ngini = 0.49\nsamples = 28\nvalue = [16, 12]"] ;
405 -> 415 ;
416 [label="gini = 0.0\nsamples = 3\nvalue = [3, 0]"] ;
415 -> 416 ;
417 [label="X[0] <= 5.75\ngini = 0.499\nsamples = 25\nvalue = [13, 12]"] ;
415 -> 417 ;
418 [label="X[1] <= 9.65\ngini = 0.32\nsamples = 5\nvalue = [1, 4]"] ;
417 -> 418 ;
419 [label="X[0] <= 5.45\ngini = 0.444\nsamples = 3\nvalue = [1, 2]"] ;
418 -> 419 ;
420 [label="gini = 0.0\nsamples = 1\nvalue = [1, 0]"] ;
419 -> 420 ;
421 [label="gini = 0.0\nsamples = 2\nvalue = [0, 2]"] ;
419 -> 421 ;
422 [label="gini = 0.0\nsamples = 2\nvalue = [0, 2]"] ;
418 -> 422 ;
423 [label="X[0] <= 6.75\ngini = 0.48\nsamples = 20\nvalue = [12, 8]"] ;
417 -> 423 ;
424 [label="X[0] <= 6.25\ngini = 0.32\nsamples = 10\nvalue = [8, 2]"] ;
423 -> 424 ;
425 [label="X[1] <= 9.65\ngini = 0.5\nsamples = 2\nvalue = [1, 1]"] ;
424 -> 425 ;
426 [label="gini = 0.0\nsamples = 1\nvalue = [0, 1]"] ;
425 -> 426 ;
427 [label="gini = 0.0\nsamples = 1\nvalue = [1, 0]"] ;
425 -> 427 ;
428 [label="X[1] <= 9.65\ngini = 0.219\nsamples = 8\nvalue = [7, 1]"] ;
424 -> 428 ;
429 [label="gini = 0.0\nsamples = 5\nvalue = [5, 0]"] ;
428 -> 429 ;
430 [label="X[1] <= 9.717\ngini = 0.444\nsamples = 3\nvalue = [2, 1]"] ;
428 -> 430 ;
431 [label="X[0] <= 6.55\ngini = 0.5\nsamples = 2\nvalue = [1, 1]"] ;
430 -> 431 ;
432 [label="gini = 0.0\nsamples = 1\nvalue = [0, 1]"] ;
431 -> 432 ;
433 [label="gini = 0.0\nsamples = 1\nvalue = [1, 0]"] ;
431 -> 433 ;
434 [label="gini = 0.0\nsamples = 1\nvalue = [1, 0]"] ;
430 -> 434 ;
435 [label="X[0] <= 7.15\ngini = 0.48\nsamples = 10\nvalue = [4, 6]"] ;
423 -> 435 ;
436 [label="X[1] <= 9.65\ngini = 0.32\nsamples = 5\nvalue = [1, 4]"] ;
435 -> 436 ;
437 [label="gini = 0.0\nsamples = 3\nvalue = [0, 3]"] ;
436 -> 437 ;
438 [label="X[0] <= 6.975\ngini = 0.5\nsamples = 2\nvalue = [1, 1]"] ;
436 -> 438 ;
439 [label="gini = 0.0\nsamples = 1\nvalue = [1, 0]"] ;
438 -> 439 ;
440 [label="gini = 0.0\nsamples = 1\nvalue = [0, 1]"] ;
438 -> 440 ;
441 [label="X[1] <= 9.65\ngini = 0.48\nsamples = 5\nvalue = [3, 2]"] ;
435 -> 441 ;
442 [label="gini = 0.0\nsamples = 2\nvalue = [2, 0]"] ;
441 -> 442 ;
443 [label="X[0] <= 7.35\ngini = 0.444\nsamples = 3\nvalue = [1, 2]"] ;
441 -> 443 ;
444 [label="gini = 0.5\nsamples = 2\nvalue = [1, 1]"] ;
443 -> 444 ;
445 [label="gini = 0.0\nsamples = 1\nvalue = [0, 1]"] ;
443 -> 445 ;
446 [label="gini = 0.0\nsamples = 4\nvalue = [0, 4]"] ;
382 -> 446 ;
447 [label="X[0] <= 8.1\ngini = 0.42\nsamples = 10\nvalue = [7, 3]"] ;
381 -> 447 ;
448 [label="gini = 0.0\nsamples = 4\nvalue = [4, 0]"] ;
447 -> 448 ;
449 [label="X[1] <= 9.65\ngini = 0.5\nsamples = 6\nvalue = [3, 3]"] ;
447 -> 449 ;
450 [label="gini = 0.0\nsamples = 1\nvalue = [0, 1]"] ;
449 -> 450 ;
451 [label="X[0] <= 8.25\ngini = 0.48\nsamples = 5\nvalue = [3, 2]"] ;
449 -> 451 ;
452 [label="gini = 0.5\nsamples = 4\nvalue = [2, 2]"] ;
451 -> 452 ;
453 [label="gini = 0.0\nsamples = 1\nvalue = [1, 0]"] ;
451 -> 453 ;
454 [label="gini = 0.0\nsamples = 3\nvalue = [3, 0]"] ;
378 -> 454 ;
455 [label="X[0] <= 11.925\ngini = 0.346\nsamples = 18\nvalue = [4, 14]"] ;
375 -> 455 ;
456 [label="X[0] <= 10.55\ngini = 0.219\nsamples = 16\nvalue = [2, 14]"] ;
455 -> 456 ;
457 [label="gini = 0.0\nsamples = 8\nvalue = [0, 8]"] ;
456 -> 457 ;
458 [label="X[0] <= 11.25\ngini = 0.375\nsamples = 8\nvalue = [2, 6]"] ;
456 -> 458 ;
459 [label="X[1] <= 9.65\ngini = 0.5\nsamples = 4\nvalue = [2, 2]"] ;
458 -> 459 ;
460 [label="gini = 0.0\nsamples = 1\nvalue = [0, 1]"] ;
459 -> 460 ;
461 [label="X[0] <= 10.9\ngini = 0.444\nsamples = 3\nvalue = [2, 1]"] ;
459 -> 461 ;
462 [label="gini = 0.5\nsamples = 2\nvalue = [1, 1]"] ;
461 -> 462 ;
463 [label="gini = 0.0\nsamples = 1\nvalue = [1, 0]"] ;
461 -> 463 ;
464 [label="gini = 0.0\nsamples = 4\nvalue = [0, 4]"] ;
458 -> 464 ;
465 [label="gini = 0.0\nsamples = 2\nvalue = [2, 0]"] ;
455 -> 465 ;
466 [label="X[0] <= 17.65\ngini = 0.488\nsamples = 385\nvalue = [163, 222]"] ;
2 -> 466 ;
467 [label="X[1] <= 9.05\ngini = 0.475\nsamples = 329\nvalue = [128, 201]"] ;
466 -> 467 ;
468 [label="X[0] <= 13.75\ngini = 0.405\nsamples = 142\nvalue = [40, 102]"] ;
467 -> 468 ;
469 [label="X[1] <= 8.65\ngini = 0.491\nsamples = 51\nvalue = [22, 29]"] ;
468 -> 469 ;
470 [label="gini = 0.0\nsamples = 2\nvalue = [0, 2]"] ;
469 -> 470 ;
471 [label="X[1] <= 8.85\ngini = 0.495\nsamples = 49\nvalue = [22, 27]"] ;
469 -> 471 ;
472 [label="X[0] <= 13.65\ngini = 0.484\nsamples = 17\nvalue = [10, 7]"] ;
471 -> 472 ;
473 [label="X[0] <= 12.95\ngini = 0.375\nsamples = 12\nvalue = [9, 3]"] ;
472 -> 473 ;
474 [label="gini = 0.0\nsamples = 4\nvalue = [4, 0]"] ;
473 -> 474 ;
475 [label="X[0] <= 13.45\ngini = 0.469\nsamples = 8\nvalue = [5, 3]"] ;
473 -> 475 ;
476 [label="X[0] <= 13.25\ngini = 0.48\nsamples = 5\nvalue = [2, 3]"] ;
475 -> 476 ;
477 [label="X[1] <= 8.75\ngini = 0.444\nsamples = 3\nvalue = [2, 1]"] ;
476 -> 477 ;
478 [label="gini = 0.0\nsamples = 1\nvalue = [0, 1]"] ;
477 -> 478 ;
479 [label="gini = 0.0\nsamples = 2\nvalue = [2, 0]"] ;
477 -> 479 ;
480 [label="gini = 0.0\nsamples = 2\nvalue = [0, 2]"] ;
476 -> 480 ;
481 [label="gini = 0.0\nsamples = 3\nvalue = [3, 0]"] ;
475 -> 481 ;
482 [label="gini = 0.32\nsamples = 5\nvalue = [1, 4]"] ;
472 -> 482 ;
483 [label="X[0] <= 13.3\ngini = 0.469\nsamples = 32\nvalue = [12, 20]"] ;
471 -> 483 ;
484 [label="X[0] <= 12.25\ngini = 0.435\nsamples = 25\nvalue = [8, 17]"] ;
483 -> 484 ;
485 [label="gini = 0.0\nsamples = 2\nvalue = [0, 2]"] ;
484 -> 485 ;
486 [label="X[0] <= 12.4\ngini = 0.454\nsamples = 23\nvalue = [8, 15]"] ;
484 -> 486 ;
487 [label="gini = 0.0\nsamples = 1\nvalue = [1, 0]"] ;
486 -> 487 ;
488 [label="X[1] <= 8.95\ngini = 0.434\nsamples = 22\nvalue = [7, 15]"] ;
486 -> 488 ;
489 [label="X[0] <= 13.05\ngini = 0.5\nsamples = 6\nvalue = [3, 3]"] ;
488 -> 489 ;
490 [label="gini = 0.0\nsamples = 3\nvalue = [3, 0]"] ;
489 -> 490 ;
491 [label="gini = 0.0\nsamples = 3\nvalue = [0, 3]"] ;
489 -> 491 ;
492 [label="X[0] <= 12.85\ngini = 0.375\nsamples = 16\nvalue = [4, 12]"] ;
488 -> 492 ;
493 [label="X[0] <= 12.65\ngini = 0.278\nsamples = 12\nvalue = [2, 10]"] ;
492 -> 493 ;
494 [label="gini = 0.32\nsamples = 5\nvalue = [1, 4]"] ;
493 -> 494 ;
495 [label="gini = 0.245\nsamples = 7\nvalue = [1, 6]"] ;
493 -> 495 ;
496 [label="X[0] <= 13.15\ngini = 0.5\nsamples = 4\nvalue = [2, 2]"] ;
492 -> 496 ;
497 [label="gini = 0.0\nsamples = 2\nvalue = [2, 0]"] ;
496 -> 497 ;
498 [label="gini = 0.0\nsamples = 2\nvalue = [0, 2]"] ;
496 -> 498 ;
499 [label="X[0] <= 13.55\ngini = 0.49\nsamples = 7\nvalue = [4, 3]"] ;
483 -> 499 ;
500 [label="gini = 0.0\nsamples = 1\nvalue = [1, 0]"] ;
499 -> 500 ;
501 [label="X[1] <= 8.95\ngini = 0.5\nsamples = 6\nvalue = [3, 3]"] ;
499 -> 501 ;
502 [label="gini = 0.0\nsamples = 1\nvalue = [1, 0]"] ;
501 -> 502 ;
503 [label="gini = 0.48\nsamples = 5\nvalue = [2, 3]"] ;
501 -> 503 ;
504 [label="X[0] <= 14.85\ngini = 0.317\nsamples = 91\nvalue = [18, 73]"] ;
468 -> 504 ;
505 [label="X[1] <= 8.75\ngini = 0.053\nsamples = 37\nvalue = [1, 36]"] ;
504 -> 505 ;
506 [label="X[0] <= 14.175\ngini = 0.444\nsamples = 3\nvalue = [1, 2]"] ;
505 -> 506 ;
507 [label="gini = 0.0\nsamples = 1\nvalue = [0, 1]"] ;
506 -> 507 ;
508 [label="X[1] <= 8.65\ngini = 0.5\nsamples = 2\nvalue = [1, 1]"] ;
506 -> 508 ;
509 [label="gini = 0.0\nsamples = 1\nvalue = [0, 1]"] ;
508 -> 509 ;
510 [label="gini = 0.0\nsamples = 1\nvalue = [1, 0]"] ;
508 -> 510 ;
511 [label="gini = 0.0\nsamples = 34\nvalue = [0, 34]"] ;
505 -> 511 ;
512 [label="X[0] <= 17.15\ngini = 0.431\nsamples = 54\nvalue = [17, 37]"] ;
504 -> 512 ;
513 [label="X[0] <= 15.2\ngini = 0.478\nsamples = 43\nvalue = [17, 26]"] ;
512 -> 513 ;
514 [label="X[1] <= 8.7\ngini = 0.444\nsamples = 9\nvalue = [6, 3]"] ;
513 -> 514 ;
515 [label="gini = 0.0\nsamples = 2\nvalue = [2, 0]"] ;
514 -> 515 ;
516 [label="X[1] <= 8.9\ngini = 0.49\nsamples = 7\nvalue = [4, 3]"] ;
514 -> 516 ;
517 [label="gini = 0.0\nsamples = 2\nvalue = [0, 2]"] ;
516 -> 517 ;
518 [label="X[0] <= 14.95\ngini = 0.32\nsamples = 5\nvalue = [4, 1]"] ;
516 -> 518 ;
519 [label="gini = 0.444\nsamples = 3\nvalue = [2, 1]"] ;
518 -> 519 ;
520 [label="gini = 0.0\nsamples = 2\nvalue = [2, 0]"] ;
518 -> 520 ;
521 [label="X[0] <= 16.025\ngini = 0.438\nsamples = 34\nvalue = [11, 23]"] ;
513 -> 521 ;
522 [label="X[1] <= 8.95\ngini = 0.255\nsamples = 20\nvalue = [3, 17]"] ;
521 -> 522 ;
523 [label="X[0] <= 15.45\ngini = 0.133\nsamples = 14\nvalue = [1, 13]"] ;
522 -> 523 ;
524 [label="X[1] <= 8.75\ngini = 0.32\nsamples = 5\nvalue = [1, 4]"] ;
523 -> 524 ;
525 [label="gini = 0.0\nsamples = 2\nvalue = [0, 2]"] ;
524 -> 525 ;
526 [label="X[1] <= 8.85\ngini = 0.444\nsamples = 3\nvalue = [1, 2]"] ;
524 -> 526 ;
527 [label="gini = 0.0\nsamples = 1\nvalue = [1, 0]"] ;
526 -> 527 ;
528 [label="gini = 0.0\nsamples = 2\nvalue = [0, 2]"] ;
526 -> 528 ;
529 [label="gini = 0.0\nsamples = 9\nvalue = [0, 9]"] ;
523 -> 529 ;
530 [label="X[0] <= 15.5\ngini = 0.444\nsamples = 6\nvalue = [2, 4]"] ;
522 -> 530 ;
531 [label="gini = 0.0\nsamples = 1\nvalue = [0, 1]"] ;
530 -> 531 ;
532 [label="X[0] <= 15.8\ngini = 0.48\nsamples = 5\nvalue = [2, 3]"] ;
530 -> 532 ;
533 [label="gini = 0.444\nsamples = 3\nvalue = [1, 2]"] ;
532 -> 533 ;
534 [label="gini = 0.5\nsamples = 2\nvalue = [1, 1]"] ;
532 -> 534 ;
535 [label="X[0] <= 16.35\ngini = 0.49\nsamples = 14\nvalue = [8, 6]"] ;
521 -> 535 ;
536 [label="gini = 0.0\nsamples = 5\nvalue = [5, 0]"] ;
535 -> 536 ;
537 [label="X[0] <= 16.975\ngini = 0.444\nsamples = 9\nvalue = [3, 6]"] ;
535 -> 537 ;
538 [label="X[0] <= 16.725\ngini = 0.245\nsamples = 7\nvalue = [1, 6]"] ;
537 -> 538 ;
539 [label="gini = 0.0\nsamples = 4\nvalue = [0, 4]"] ;
538 -> 539 ;
540 [label="X[0] <= 16.825\ngini = 0.444\nsamples = 3\nvalue = [1, 2]"] ;
538 -> 540 ;
541 [label="gini = 0.0\nsamples = 1\nvalue = [1, 0]"] ;
540 -> 541 ;
542 [label="gini = 0.0\nsamples = 2\nvalue = [0, 2]"] ;
540 -> 542 ;
543 [label="gini = 0.0\nsamples = 2\nvalue = [2, 0]"] ;
537 -> 543 ;
544 [label="gini = 0.0\nsamples = 11\nvalue = [0, 11]"] ;
512 -> 544 ;
545 [label="X[0] <= 16.475\ngini = 0.498\nsamples = 187\nvalue = [88, 99]"] ;
467 -> 545 ;
546 [label="X[0] <= 14.475\ngini = 0.5\nsamples = 161\nvalue = [83, 78]"] ;
545 -> 546 ;
547 [label="X[0] <= 14.375\ngini = 0.489\nsamples = 99\nvalue = [42, 57]"] ;
546 -> 547 ;
548 [label="X[0] <= 14.25\ngini = 0.496\nsamples = 92\nvalue = [42, 50]"] ;
547 -> 548 ;
549 [label="X[1] <= 9.15\ngini = 0.49\nsamples = 84\nvalue = [36, 48]"] ;
548 -> 549 ;
550 [label="X[0] <= 13.35\ngini = 0.291\nsamples = 17\nvalue = [3, 14]"] ;
549 -> 550 ;
551 [label="X[0] <= 13.0\ngini = 0.133\nsamples = 14\nvalue = [1, 13]"] ;
550 -> 551 ;
552 [label="X[0] <= 12.85\ngini = 0.219\nsamples = 8\nvalue = [1, 7]"] ;
551 -> 552 ;
553 [label="gini = 0.0\nsamples = 5\nvalue = [0, 5]"] ;
552 -> 553 ;
554 [label="gini = 0.444\nsamples = 3\nvalue = [1, 2]"] ;
552 -> 554 ;
555 [label="gini = 0.0\nsamples = 6\nvalue = [0, 6]"] ;
551 -> 555 ;
556 [label="X[0] <= 13.95\ngini = 0.444\nsamples = 3\nvalue = [2, 1]"] ;
550 -> 556 ;
557 [label="gini = 0.0\nsamples = 2\nvalue = [2, 0]"] ;
556 -> 557 ;
558 [label="gini = 0.0\nsamples = 1\nvalue = [0, 1]"] ;
556 -> 558 ;
559 [label="X[1] <= 9.25\ngini = 0.5\nsamples = 67\nvalue = [33, 34]"] ;
549 -> 559 ;
560 [label="X[0] <= 13.75\ngini = 0.198\nsamples = 9\nvalue = [8, 1]"] ;
559 -> 560 ;
561 [label="gini = 0.0\nsamples = 8\nvalue = [8, 0]"] ;
560 -> 561 ;
562 [label="gini = 0.0\nsamples = 1\nvalue = [0, 1]"] ;
560 -> 562 ;
563 [label="X[1] <= 9.65\ngini = 0.49\nsamples = 58\nvalue = [25, 33]"] ;
559 -> 563 ;
564 [label="X[1] <= 9.45\ngini = 0.477\nsamples = 51\nvalue = [20, 31]"] ;
563 -> 564 ;
565 [label="X[0] <= 12.75\ngini = 0.5\nsamples = 28\nvalue = [14, 14]"] ;
564 -> 565 ;
566 [label="X[1] <= 9.35\ngini = 0.42\nsamples = 10\nvalue = [3, 7]"] ;
565 -> 566 ;
567 [label="gini = 0.0\nsamples = 4\nvalue = [0, 4]"] ;
566 -> 567 ;
568 [label="X[0] <= 12.45\ngini = 0.5\nsamples = 6\nvalue = [3, 3]"] ;
566 -> 568 ;
569 [label="X[0] <= 12.25\ngini = 0.375\nsamples = 4\nvalue = [3, 1]"] ;
568 -> 569 ;
570 [label="gini = 0.5\nsamples = 2\nvalue = [1, 1]"] ;
569 -> 570 ;
571 [label="gini = 0.0\nsamples = 2\nvalue = [2, 0]"] ;
569 -> 571 ;
572 [label="gini = 0.0\nsamples = 2\nvalue = [0, 2]"] ;
568 -> 572 ;
573 [label="X[0] <= 12.95\ngini = 0.475\nsamples = 18\nvalue = [11, 7]"] ;
565 -> 573 ;
574 [label="gini = 0.0\nsamples = 6\nvalue = [6, 0]"] ;
573 -> 574 ;
575 [label="X[1] <= 9.35\ngini = 0.486\nsamples = 12\nvalue = [5, 7]"] ;
573 -> 575 ;
576 [label="X[0] <= 13.3\ngini = 0.375\nsamples = 4\nvalue = [3, 1]"] ;
575 -> 576 ;
577 [label="gini = 0.0\nsamples = 1\nvalue = [0, 1]"] ;
576 -> 577 ;
578 [label="gini = 0.0\nsamples = 3\nvalue = [3, 0]"] ;
576 -> 578 ;
579 [label="X[0] <= 13.75\ngini = 0.375\nsamples = 8\nvalue = [2, 6]"] ;
575 -> 579 ;
580 [label="X[0] <= 13.15\ngini = 0.444\nsamples = 3\nvalue = [2, 1]"] ;
579 -> 580 ;
581 [label="gini = 0.0\nsamples = 1\nvalue = [0, 1]"] ;
580 -> 581 ;
582 [label="gini = 0.0\nsamples = 2\nvalue = [2, 0]"] ;
580 -> 582 ;
583 [label="gini = 0.0\nsamples = 5\nvalue = [0, 5]"] ;
579 -> 583 ;
584 [label="X[0] <= 13.4\ngini = 0.386\nsamples = 23\nvalue = [6, 17]"] ;
564 -> 584 ;
585 [label="X[0] <= 13.05\ngini = 0.444\nsamples = 15\nvalue = [5, 10]"] ;
584 -> 585 ;
586 [label="X[1] <= 9.55\ngini = 0.32\nsamples = 10\nvalue = [2, 8]"] ;
585 -> 586 ;
587 [label="X[0] <= 12.5\ngini = 0.444\nsamples = 6\nvalue = [2, 4]"] ;
586 -> 587 ;
588 [label="X[0] <= 12.35\ngini = 0.32\nsamples = 5\nvalue = [1, 4]"] ;
587 -> 588 ;
589 [label="gini = 0.0\nsamples = 2\nvalue = [0, 2]"] ;
588 -> 589 ;
590 [label="gini = 0.444\nsamples = 3\nvalue = [1, 2]"] ;
588 -> 590 ;
591 [label="gini = 0.0\nsamples = 1\nvalue = [1, 0]"] ;
587 -> 591 ;
592 [label="gini = 0.0\nsamples = 4\nvalue = [0, 4]"] ;
586 -> 592 ;
593 [label="X[1] <= 9.55\ngini = 0.48\nsamples = 5\nvalue = [3, 2]"] ;
585 -> 593 ;
594 [label="gini = 0.0\nsamples = 1\nvalue = [1, 0]"] ;
593 -> 594 ;
595 [label="X[0] <= 13.15\ngini = 0.5\nsamples = 4\nvalue = [2, 2]"] ;
593 -> 595 ;
596 [label="gini = 0.0\nsamples = 1\nvalue = [0, 1]"] ;
595 -> 596 ;
597 [label="gini = 0.444\nsamples = 3\nvalue = [2, 1]"] ;
595 -> 597 ;
598 [label="X[0] <= 14.1\ngini = 0.219\nsamples = 8\nvalue = [1, 7]"] ;
584 -> 598 ;
599 [label="gini = 0.0\nsamples = 6\nvalue = [0, 6]"] ;
598 -> 599 ;
600 [label="gini = 0.5\nsamples = 2\nvalue = [1, 1]"] ;
598 -> 600 ;
601 [label="X[0] <= 13.15\ngini = 0.408\nsamples = 7\nvalue = [5, 2]"] ;
563 -> 601 ;
602 [label="gini = 0.0\nsamples = 4\nvalue = [4, 0]"] ;
601 -> 602 ;
603 [label="X[0] <= 13.45\ngini = 0.444\nsamples = 3\nvalue = [1, 2]"] ;
601 -> 603 ;
604 [label="gini = 0.0\nsamples = 2\nvalue = [0, 2]"] ;
603 -> 604 ;
605 [label="gini = 0.0\nsamples = 1\nvalue = [1, 0]"] ;
603 -> 605 ;
606 [label="X[1] <= 9.15\ngini = 0.375\nsamples = 8\nvalue = [6, 2]"] ;
548 -> 606 ;
607 [label="gini = 0.0\nsamples = 3\nvalue = [3, 0]"] ;
606 -> 607 ;
608 [label="X[1] <= 9.45\ngini = 0.48\nsamples = 5\nvalue = [3, 2]"] ;
606 -> 608 ;
609 [label="gini = 0.5\nsamples = 4\nvalue = [2, 2]"] ;
608 -> 609 ;
610 [label="gini = 0.0\nsamples = 1\nvalue = [1, 0]"] ;
608 -> 610 ;
611 [label="gini = 0.0\nsamples = 7\nvalue = [0, 7]"] ;
547 -> 611 ;
612 [label="X[1] <= 9.55\ngini = 0.448\nsamples = 62\nvalue = [41, 21]"] ;
546 -> 612 ;
613 [label="X[1] <= 9.35\ngini = 0.385\nsamples = 50\nvalue = [37, 13]"] ;
612 -> 613 ;
614 [label="X[1] <= 9.15\ngini = 0.451\nsamples = 32\nvalue = [21, 11]"] ;
613 -> 614 ;
615 [label="X[0] <= 15.425\ngini = 0.298\nsamples = 11\nvalue = [9, 2]"] ;
614 -> 615 ;
616 [label="gini = 0.0\nsamples = 6\nvalue = [6, 0]"] ;
615 -> 616 ;
617 [label="X[0] <= 15.875\ngini = 0.48\nsamples = 5\nvalue = [3, 2]"] ;
615 -> 617 ;
618 [label="gini = 0.0\nsamples = 2\nvalue = [0, 2]"] ;
617 -> 618 ;
619 [label="gini = 0.0\nsamples = 3\nvalue = [3, 0]"] ;
617 -> 619 ;
620 [label="X[0] <= 14.55\ngini = 0.49\nsamples = 21\nvalue = [12, 9]"] ;
614 -> 620 ;
621 [label="gini = 0.0\nsamples = 2\nvalue = [0, 2]"] ;
620 -> 621 ;
622 [label="X[0] <= 14.75\ngini = 0.465\nsamples = 19\nvalue = [12, 7]"] ;
620 -> 622 ;
623 [label="gini = 0.0\nsamples = 3\nvalue = [3, 0]"] ;
622 -> 623 ;
624 [label="X[0] <= 14.925\ngini = 0.492\nsamples = 16\nvalue = [9, 7]"] ;
622 -> 624 ;
625 [label="gini = 0.0\nsamples = 2\nvalue = [0, 2]"] ;
624 -> 625 ;
626 [label="X[0] <= 15.1\ngini = 0.459\nsamples = 14\nvalue = [9, 5]"] ;
624 -> 626 ;
627 [label="gini = 0.0\nsamples = 3\nvalue = [3, 0]"] ;
626 -> 627 ;
628 [label="X[0] <= 15.3\ngini = 0.496\nsamples = 11\nvalue = [6, 5]"] ;
626 -> 628 ;
629 [label="gini = 0.0\nsamples = 1\nvalue = [0, 1]"] ;
628 -> 629 ;
630 [label="X[1] <= 9.25\ngini = 0.48\nsamples = 10\nvalue = [6, 4]"] ;
628 -> 630 ;
631 [label="X[0] <= 15.925\ngini = 0.49\nsamples = 7\nvalue = [3, 4]"] ;
630 -> 631 ;
632 [label="gini = 0.0\nsamples = 2\nvalue = [0, 2]"] ;
631 -> 632 ;
633 [label="X[0] <= 16.125\ngini = 0.48\nsamples = 5\nvalue = [3, 2]"] ;
631 -> 633 ;
634 [label="gini = 0.0\nsamples = 3\nvalue = [3, 0]"] ;
633 -> 634 ;
635 [label="gini = 0.0\nsamples = 2\nvalue = [0, 2]"] ;
633 -> 635 ;
636 [label="gini = 0.0\nsamples = 3\nvalue = [3, 0]"] ;
630 -> 636 ;
637 [label="X[0] <= 15.05\ngini = 0.198\nsamples = 18\nvalue = [16, 2]"] ;
613 -> 637 ;
638 [label="X[1] <= 9.45\ngini = 0.5\nsamples = 4\nvalue = [2, 2]"] ;
637 -> 638 ;
639 [label="gini = 0.0\nsamples = 1\nvalue = [0, 1]"] ;
638 -> 639 ;
640 [label="X[0] <= 14.9\ngini = 0.444\nsamples = 3\nvalue = [2, 1]"] ;
638 -> 640 ;
641 [label="gini = 0.0\nsamples = 2\nvalue = [2, 0]"] ;
640 -> 641 ;
642 [label="gini = 0.0\nsamples = 1\nvalue = [0, 1]"] ;
640 -> 642 ;
643 [label="gini = 0.0\nsamples = 14\nvalue = [14, 0]"] ;
637 -> 643 ;
644 [label="X[0] <= 14.85\ngini = 0.444\nsamples = 12\nvalue = [4, 8]"] ;
612 -> 644 ;
645 [label="gini = 0.0\nsamples = 3\nvalue = [3, 0]"] ;
644 -> 645 ;
646 [label="X[0] <= 15.4\ngini = 0.198\nsamples = 9\nvalue = [1, 8]"] ;
644 -> 646 ;
647 [label="X[0] <= 15.15\ngini = 0.32\nsamples = 5\nvalue = [1, 4]"] ;
646 -> 647 ;
648 [label="gini = 0.0\nsamples = 3\nvalue = [0, 3]"] ;
647 -> 648 ;
649 [label="gini = 0.5\nsamples = 2\nvalue = [1, 1]"] ;
647 -> 649 ;
650 [label="gini = 0.0\nsamples = 4\nvalue = [0, 4]"] ;
646 -> 650 ;
651 [label="X[1] <= 9.65\ngini = 0.311\nsamples = 26\nvalue = [5, 21]"] ;
545 -> 651 ;
652 [label="X[0] <= 16.775\ngini = 0.219\nsamples = 24\nvalue = [3, 21]"] ;
651 -> 652 ;
653 [label="X[0] <= 16.6\ngini = 0.444\nsamples = 6\nvalue = [2, 4]"] ;
652 -> 653 ;
654 [label="gini = 0.0\nsamples = 3\nvalue = [0, 3]"] ;
653 -> 654 ;
655 [label="X[1] <= 9.45\ngini = 0.444\nsamples = 3\nvalue = [2, 1]"] ;
653 -> 655 ;
656 [label="gini = 0.0\nsamples = 2\nvalue = [2, 0]"] ;
655 -> 656 ;
657 [label="gini = 0.0\nsamples = 1\nvalue = [0, 1]"] ;
655 -> 657 ;
658 [label="X[0] <= 17.325\ngini = 0.105\nsamples = 18\nvalue = [1, 17]"] ;
652 -> 658 ;
659 [label="gini = 0.0\nsamples = 11\nvalue = [0, 11]"] ;
658 -> 659 ;
660 [label="X[0] <= 17.4\ngini = 0.245\nsamples = 7\nvalue = [1, 6]"] ;
658 -> 660 ;
661 [label="gini = 0.0\nsamples = 1\nvalue = [1, 0]"] ;
660 -> 661 ;
662 [label="gini = 0.0\nsamples = 6\nvalue = [0, 6]"] ;
660 -> 662 ;
663 [label="gini = 0.0\nsamples = 2\nvalue = [2, 0]"] ;
651 -> 663 ;
664 [label="X[1] <= 9.35\ngini = 0.469\nsamples = 56\nvalue = [35, 21]"] ;
466 -> 664 ;
665 [label="X[1] <= 9.15\ngini = 0.482\nsamples = 52\nvalue = [31, 21]"] ;
664 -> 665 ;
666 [label="X[0] <= 19.275\ngini = 0.449\nsamples = 44\nvalue = [29, 15]"] ;
665 -> 666 ;
667 [label="X[0] <= 18.925\ngini = 0.487\nsamples = 31\nvalue = [18, 13]"] ;
666 -> 667 ;
668 [label="X[0] <= 18.225\ngini = 0.459\nsamples = 28\nvalue = [18, 10]"] ;
667 -> 668 ;
669 [label="X[1] <= 8.6\ngini = 0.496\nsamples = 22\nvalue = [12, 10]"] ;
668 -> 669 ;
670 [label="gini = 0.0\nsamples = 1\nvalue = [0, 1]"] ;
669 -> 670 ;
671 [label="X[0] <= 17.875\ngini = 0.49\nsamples = 21\nvalue = [12, 9]"] ;
669 -> 671 ;
672 [label="X[1] <= 8.75\ngini = 0.496\nsamples = 11\nvalue = [5, 6]"] ;
671 -> 672 ;
673 [label="gini = 0.0\nsamples = 2\nvalue = [2, 0]"] ;
672 -> 673 ;
674 [label="X[0] <= 17.825\ngini = 0.444\nsamples = 9\nvalue = [3, 6]"] ;
672 -> 674 ;
675 [label="X[1] <= 8.95\ngini = 0.49\nsamples = 7\nvalue = [3, 4]"] ;
674 -> 675 ;
676 [label="X[0] <= 17.775\ngini = 0.32\nsamples = 5\nvalue = [1, 4]"] ;
675 -> 676 ;
677 [label="gini = 0.0\nsamples = 1\nvalue = [0, 1]"] ;
676 -> 677 ;
678 [label="gini = 0.375\nsamples = 4\nvalue = [1, 3]"] ;
676 -> 678 ;
679 [label="gini = 0.0\nsamples = 2\nvalue = [2, 0]"] ;
675 -> 679 ;
680 [label="gini = 0.0\nsamples = 2\nvalue = [0, 2]"] ;
674 -> 680 ;
681 [label="X[0] <= 18.075\ngini = 0.42\nsamples = 10\nvalue = [7, 3]"] ;
671 -> 681 ;
682 [label="gini = 0.0\nsamples = 4\nvalue = [4, 0]"] ;
681 -> 682 ;
683 [label="X[1] <= 8.75\ngini = 0.5\nsamples = 6\nvalue = [3, 3]"] ;
681 -> 683 ;
684 [label="gini = 0.5\nsamples = 4\nvalue = [2, 2]"] ;
683 -> 684 ;
685 [label="gini = 0.5\nsamples = 2\nvalue = [1, 1]"] ;
683 -> 685 ;
686 [label="gini = 0.0\nsamples = 6\nvalue = [6, 0]"] ;
668 -> 686 ;
687 [label="gini = 0.0\nsamples = 3\nvalue = [0, 3]"] ;
667 -> 687 ;
688 [label="X[0] <= 26.8\ngini = 0.26\nsamples = 13\nvalue = [11, 2]"] ;
666 -> 688 ;
689 [label="X[0] <= 20.6\ngini = 0.153\nsamples = 12\nvalue = [11, 1]"] ;
688 -> 689 ;
690 [label="gini = 0.0\nsamples = 9\nvalue = [9, 0]"] ;
689 -> 690 ;
691 [label="X[0] <= 21.4\ngini = 0.444\nsamples = 3\nvalue = [2, 1]"] ;
689 -> 691 ;
692 [label="gini = 0.0\nsamples = 1\nvalue = [0, 1]"] ;
691 -> 692 ;
693 [label="gini = 0.0\nsamples = 2\nvalue = [2, 0]"] ;
691 -> 693 ;
694 [label="gini = 0.0\nsamples = 1\nvalue = [0, 1]"] ;
688 -> 694 ;
695 [label="X[0] <= 18.375\ngini = 0.375\nsamples = 8\nvalue = [2, 6]"] ;
665 -> 695 ;
696 [label="gini = 0.0\nsamples = 2\nvalue = [2, 0]"] ;
695 -> 696 ;
697 [label="gini = 0.0\nsamples = 6\nvalue = [0, 6]"] ;
695 -> 697 ;
698 [label="gini = 0.0\nsamples = 4\nvalue = [4, 0]"] ;
664 -> 698 ;
699 [label="X[0] <= 2.95\ngini = 0.462\nsamples = 901\nvalue = [327, 574]"] ;
1 -> 699 ;
700 [label="X[1] <= 10.35\ngini = 0.49\nsamples = 406\nvalue = [175, 231]"] ;
699 -> 700 ;
701 [label="X[0] <= 1.95\ngini = 0.497\nsamples = 171\nvalue = [92, 79]"] ;
700 -> 701 ;
702 [label="X[0] <= 1.05\ngini = 0.5\nsamples = 134\nvalue = [65, 69]"] ;
701 -> 702 ;
703 [label="X[1] <= 10.05\ngini = 0.401\nsamples = 18\nvalue = [13, 5]"] ;
702 -> 703 ;
704 [label="X[0] <= 0.75\ngini = 0.494\nsamples = 9\nvalue = [5, 4]"] ;
703 -> 704 ;
705 [label="gini = 0.0\nsamples = 2\nvalue = [2, 0]"] ;
704 -> 705 ;
706 [label="X[0] <= 0.9\ngini = 0.49\nsamples = 7\nvalue = [3, 4]"] ;
704 -> 706 ;
707 [label="gini = 0.0\nsamples = 2\nvalue = [0, 2]"] ;
706 -> 707 ;
708 [label="X[1] <= 9.85\ngini = 0.48\nsamples = 5\nvalue = [3, 2]"] ;
706 -> 708 ;
709 [label="gini = 0.5\nsamples = 2\nvalue = [1, 1]"] ;
708 -> 709 ;
710 [label="X[1] <= 9.95\ngini = 0.444\nsamples = 3\nvalue = [2, 1]"] ;
708 -> 710 ;
711 [label="gini = 0.0\nsamples = 1\nvalue = [1, 0]"] ;
710 -> 711 ;
712 [label="gini = 0.5\nsamples = 2\nvalue = [1, 1]"] ;
710 -> 712 ;
713 [label="X[0] <= 0.95\ngini = 0.198\nsamples = 9\nvalue = [8, 1]"] ;
703 -> 713 ;
714 [label="X[1] <= 10.15\ngini = 0.375\nsamples = 4\nvalue = [3, 1]"] ;
713 -> 714 ;
715 [label="gini = 0.0\nsamples = 2\nvalue = [2, 0]"] ;
714 -> 715 ;
716 [label="X[0] <= 0.85\ngini = 0.5\nsamples = 2\nvalue = [1, 1]"] ;
714 -> 716 ;
717 [label="gini = 0.0\nsamples = 1\nvalue = [1, 0]"] ;
716 -> 717 ;
718 [label="gini = 0.0\nsamples = 1\nvalue = [0, 1]"] ;
716 -> 718 ;
719 [label="gini = 0.0\nsamples = 5\nvalue = [5, 0]"] ;
713 -> 719 ;
720 [label="X[0] <= 1.15\ngini = 0.495\nsamples = 116\nvalue = [52, 64]"] ;
702 -> 720 ;
721 [label="X[1] <= 10.1\ngini = 0.32\nsamples = 10\nvalue = [2, 8]"] ;
720 -> 721 ;
722 [label="X[1] <= 9.95\ngini = 0.5\nsamples = 4\nvalue = [2, 2]"] ;
721 -> 722 ;
723 [label="gini = 0.5\nsamples = 2\nvalue = [1, 1]"] ;
722 -> 723 ;
724 [label="gini = 0.5\nsamples = 2\nvalue = [1, 1]"] ;
722 -> 724 ;
725 [label="gini = 0.0\nsamples = 6\nvalue = [0, 6]"] ;
721 -> 725 ;
726 [label="X[0] <= 1.35\ngini = 0.498\nsamples = 106\nvalue = [50, 56]"] ;
720 -> 726 ;
727 [label="X[1] <= 10.05\ngini = 0.493\nsamples = 43\nvalue = [24, 19]"] ;
726 -> 727 ;
728 [label="X[0] <= 1.25\ngini = 0.475\nsamples = 18\nvalue = [7, 11]"] ;
727 -> 728 ;
729 [label="X[1] <= 9.95\ngini = 0.408\nsamples = 7\nvalue = [2, 5]"] ;
728 -> 729 ;
730 [label="X[1] <= 9.85\ngini = 0.48\nsamples = 5\nvalue = [2, 3]"] ;
729 -> 730 ;
731 [label="gini = 0.444\nsamples = 3\nvalue = [1, 2]"] ;
730 -> 731 ;
732 [label="gini = 0.5\nsamples = 2\nvalue = [1, 1]"] ;
730 -> 732 ;
733 [label="gini = 0.0\nsamples = 2\nvalue = [0, 2]"] ;
729 -> 733 ;
734 [label="X[1] <= 9.95\ngini = 0.496\nsamples = 11\nvalue = [5, 6]"] ;
728 -> 734 ;
735 [label="gini = 0.375\nsamples = 4\nvalue = [1, 3]"] ;
734 -> 735 ;
736 [label="gini = 0.49\nsamples = 7\nvalue = [4, 3]"] ;
734 -> 736 ;
737 [label="X[0] <= 1.25\ngini = 0.435\nsamples = 25\nvalue = [17, 8]"] ;
727 -> 737 ;
738 [label="X[1] <= 10.15\ngini = 0.486\nsamples = 12\nvalue = [7, 5]"] ;
737 -> 738 ;
739 [label="gini = 0.408\nsamples = 7\nvalue = [5, 2]"] ;
738 -> 739 ;
740 [label="X[1] <= 10.25\ngini = 0.48\nsamples = 5\nvalue = [2, 3]"] ;
738 -> 740 ;
741 [label="gini = 0.444\nsamples = 3\nvalue = [1, 2]"] ;
740 -> 741 ;
742 [label="gini = 0.5\nsamples = 2\nvalue = [1, 1]"] ;
740 -> 742 ;
743 [label="X[1] <= 10.25\ngini = 0.355\nsamples = 13\nvalue = [10, 3]"] ;
737 -> 743 ;
744 [label="X[1] <= 10.15\ngini = 0.375\nsamples = 8\nvalue = [6, 2]"] ;
743 -> 744 ;
745 [label="gini = 0.375\nsamples = 4\nvalue = [3, 1]"] ;
744 -> 745 ;
746 [label="gini = 0.375\nsamples = 4\nvalue = [3, 1]"] ;
744 -> 746 ;
747 [label="gini = 0.32\nsamples = 5\nvalue = [4, 1]"] ;
743 -> 747 ;
748 [label="X[0] <= 1.55\ngini = 0.485\nsamples = 63\nvalue = [26, 37]"] ;
726 -> 748 ;
749 [label="X[1] <= 10.05\ngini = 0.412\nsamples = 31\nvalue = [9, 22]"] ;
748 -> 749 ;
750 [label="X[0] <= 1.45\ngini = 0.337\nsamples = 14\nvalue = [3, 11]"] ;
749 -> 750 ;
751 [label="X[1] <= 9.85\ngini = 0.375\nsamples = 8\nvalue = [2, 6]"] ;
750 -> 751 ;
752 [label="gini = 0.0\nsamples = 1\nvalue = [0, 1]"] ;
751 -> 752 ;
753 [label="X[1] <= 9.95\ngini = 0.408\nsamples = 7\nvalue = [2, 5]"] ;
751 -> 753 ;
754 [label="gini = 0.444\nsamples = 3\nvalue = [1, 2]"] ;
753 -> 754 ;
755 [label="gini = 0.375\nsamples = 4\nvalue = [1, 3]"] ;
753 -> 755 ;
756 [label="X[1] <= 9.85\ngini = 0.278\nsamples = 6\nvalue = [1, 5]"] ;
750 -> 756 ;
757 [label="gini = 0.444\nsamples = 3\nvalue = [1, 2]"] ;
756 -> 757 ;
758 [label="gini = 0.0\nsamples = 3\nvalue = [0, 3]"] ;
756 -> 758 ;
759 [label="X[1] <= 10.25\ngini = 0.457\nsamples = 17\nvalue = [6, 11]"] ;
749 -> 759 ;
760 [label="X[0] <= 1.45\ngini = 0.473\nsamples = 13\nvalue = [5, 8]"] ;
759 -> 760 ;
761 [label="X[1] <= 10.15\ngini = 0.5\nsamples = 8\nvalue = [4, 4]"] ;
760 -> 761 ;
762 [label="gini = 0.5\nsamples = 4\nvalue = [2, 2]"] ;
761 -> 762 ;
763 [label="gini = 0.5\nsamples = 4\nvalue = [2, 2]"] ;
761 -> 763 ;
764 [label="X[1] <= 10.15\ngini = 0.32\nsamples = 5\nvalue = [1, 4]"] ;
760 -> 764 ;
765 [label="gini = 0.0\nsamples = 2\nvalue = [0, 2]"] ;
764 -> 765 ;
766 [label="gini = 0.444\nsamples = 3\nvalue = [1, 2]"] ;
764 -> 766 ;
767 [label="X[0] <= 1.45\ngini = 0.375\nsamples = 4\nvalue = [1, 3]"] ;
759 -> 767 ;
768 [label="gini = 0.0\nsamples = 2\nvalue = [0, 2]"] ;
767 -> 768 ;
769 [label="gini = 0.5\nsamples = 2\nvalue = [1, 1]"] ;
767 -> 769 ;
770 [label="X[1] <= 10.05\ngini = 0.498\nsamples = 32\nvalue = [17, 15]"] ;
748 -> 770 ;
771 [label="X[0] <= 1.85\ngini = 0.278\nsamples = 12\nvalue = [10, 2]"] ;
770 -> 771 ;
772 [label="gini = 0.0\nsamples = 9\nvalue = [9, 0]"] ;
771 -> 772 ;
773 [label="X[1] <= 9.95\ngini = 0.444\nsamples = 3\nvalue = [1, 2]"] ;
771 -> 773 ;
774 [label="gini = 0.5\nsamples = 2\nvalue = [1, 1]"] ;
773 -> 774 ;
775 [label="gini = 0.0\nsamples = 1\nvalue = [0, 1]"] ;
773 -> 775 ;
776 [label="X[0] <= 1.85\ngini = 0.455\nsamples = 20\nvalue = [7, 13]"] ;
770 -> 776 ;
777 [label="X[1] <= 10.25\ngini = 0.432\nsamples = 19\nvalue = [6, 13]"] ;
776 -> 777 ;
778 [label="X[0] <= 1.65\ngini = 0.469\nsamples = 16\nvalue = [6, 10]"] ;
777 -> 778 ;
779 [label="X[1] <= 10.15\ngini = 0.408\nsamples = 7\nvalue = [2, 5]"] ;
778 -> 779 ;
780 [label="gini = 0.375\nsamples = 4\nvalue = [1, 3]"] ;
779 -> 780 ;
781 [label="gini = 0.444\nsamples = 3\nvalue = [1, 2]"] ;
779 -> 781 ;
782 [label="X[1] <= 10.15\ngini = 0.494\nsamples = 9\nvalue = [4, 5]"] ;
778 -> 782 ;
783 [label="gini = 0.444\nsamples = 3\nvalue = [2, 1]"] ;
782 -> 783 ;
784 [label="X[0] <= 1.75\ngini = 0.444\nsamples = 6\nvalue = [2, 4]"] ;
782 -> 784 ;
785 [label="gini = 0.0\nsamples = 1\nvalue = [0, 1]"] ;
784 -> 785 ;
786 [label="gini = 0.48\nsamples = 5\nvalue = [2, 3]"] ;
784 -> 786 ;
787 [label="gini = 0.0\nsamples = 3\nvalue = [0, 3]"] ;
777 -> 787 ;
788 [label="gini = 0.0\nsamples = 1\nvalue = [1, 0]"] ;
776 -> 788 ;
789 [label="X[1] <= 9.85\ngini = 0.394\nsamples = 37\nvalue = [27, 10]"] ;
701 -> 789 ;
790 [label="X[0] <= 2.15\ngini = 0.219\nsamples = 8\nvalue = [7, 1]"] ;
789 -> 790 ;
791 [label="gini = 0.0\nsamples = 3\nvalue = [3, 0]"] ;
790 -> 791 ;
792 [label="X[0] <= 2.35\ngini = 0.32\nsamples = 5\nvalue = [4, 1]"] ;
790 -> 792 ;
793 [label="gini = 0.5\nsamples = 2\nvalue = [1, 1]"] ;
792 -> 793 ;
794 [label="gini = 0.0\nsamples = 3\nvalue = [3, 0]"] ;
792 -> 794 ;
795 [label="X[1] <= 10.15\ngini = 0.428\nsamples = 29\nvalue = [20, 9]"] ;
789 -> 795 ;
796 [label="X[0] <= 2.1\ngini = 0.48\nsamples = 15\nvalue = [9, 6]"] ;
795 -> 796 ;
797 [label="gini = 0.0\nsamples = 3\nvalue = [3, 0]"] ;
796 -> 797 ;
798 [label="X[0] <= 2.275\ngini = 0.5\nsamples = 12\nvalue = [6, 6]"] ;
796 -> 798 ;
799 [label="gini = 0.0\nsamples = 2\nvalue = [0, 2]"] ;
798 -> 799 ;
800 [label="X[1] <= 10.05\ngini = 0.48\nsamples = 10\nvalue = [6, 4]"] ;
798 -> 800 ;
801 [label="X[0] <= 2.55\ngini = 0.408\nsamples = 7\nvalue = [5, 2]"] ;
800 -> 801 ;
802 [label="X[1] <= 9.95\ngini = 0.32\nsamples = 5\nvalue = [4, 1]"] ;
801 -> 802 ;
803 [label="gini = 0.5\nsamples = 2\nvalue = [1, 1]"] ;
802 -> 803 ;
804 [label="gini = 0.0\nsamples = 3\nvalue = [3, 0]"] ;
802 -> 804 ;
805 [label="gini = 0.5\nsamples = 2\nvalue = [1, 1]"] ;
801 -> 805 ;
806 [label="gini = 0.444\nsamples = 3\nvalue = [1, 2]"] ;
800 -> 806 ;
807 [label="X[0] <= 2.1\ngini = 0.337\nsamples = 14\nvalue = [11, 3]"] ;
795 -> 807 ;
808 [label="gini = 0.444\nsamples = 3\nvalue = [1, 2]"] ;
807 -> 808 ;
809 [label="X[0] <= 2.55\ngini = 0.165\nsamples = 11\nvalue = [10, 1]"] ;
807 -> 809 ;
810 [label="gini = 0.0\nsamples = 7\nvalue = [7, 0]"] ;
809 -> 810 ;
811 [label="X[1] <= 10.25\ngini = 0.375\nsamples = 4\nvalue = [3, 1]"] ;
809 -> 811 ;
812 [label="gini = 0.0\nsamples = 3\nvalue = [3, 0]"] ;
811 -> 812 ;
813 [label="gini = 0.0\nsamples = 1\nvalue = [0, 1]"] ;
811 -> 813 ;
814 [label="X[0] <= 1.65\ngini = 0.457\nsamples = 235\nvalue = [83, 152]"] ;
700 -> 814 ;
815 [label="X[0] <= 0.75\ngini = 0.485\nsamples = 157\nvalue = [65, 92]"] ;
814 -> 815 ;
816 [label="gini = 0.0\nsamples = 4\nvalue = [4, 0]"] ;
815 -> 816 ;
817 [label="X[0] <= 0.95\ngini = 0.479\nsamples = 153\nvalue = [61, 92]"] ;
815 -> 817 ;
818 [label="X[1] <= 10.45\ngini = 0.278\nsamples = 6\nvalue = [1, 5]"] ;
817 -> 818 ;
819 [label="gini = 0.5\nsamples = 2\nvalue = [1, 1]"] ;
818 -> 819 ;
820 [label="gini = 0.0\nsamples = 4\nvalue = [0, 4]"] ;
818 -> 820 ;
821 [label="X[0] <= 1.05\ngini = 0.483\nsamples = 147\nvalue = [60, 87]"] ;
817 -> 821 ;
822 [label="X[1] <= 10.675\ngini = 0.486\nsamples = 12\nvalue = [7, 5]"] ;
821 -> 822 ;
823 [label="X[1] <= 10.55\ngini = 0.48\nsamples = 5\nvalue = [2, 3]"] ;
822 -> 823 ;
824 [label="gini = 0.444\nsamples = 3\nvalue = [2, 1]"] ;
823 -> 824 ;
825 [label="gini = 0.0\nsamples = 2\nvalue = [0, 2]"] ;
823 -> 825 ;
826 [label="X[1] <= 10.85\ngini = 0.408\nsamples = 7\nvalue = [5, 2]"] ;
822 -> 826 ;
827 [label="X[1] <= 10.75\ngini = 0.32\nsamples = 5\nvalue = [4, 1]"] ;
826 -> 827 ;
828 [label="gini = 0.0\nsamples = 1\nvalue = [1, 0]"] ;
827 -> 828 ;
829 [label="gini = 0.375\nsamples = 4\nvalue = [3, 1]"] ;
827 -> 829 ;
830 [label="gini = 0.5\nsamples = 2\nvalue = [1, 1]"] ;
826 -> 830 ;
831 [label="X[1] <= 10.483\ngini = 0.477\nsamples = 135\nvalue = [53, 82]"] ;
821 -> 831 ;
832 [label="X[1] <= 10.433\ngini = 0.499\nsamples = 29\nvalue = [14, 15]"] ;
831 -> 832 ;
833 [label="X[0] <= 1.25\ngini = 0.494\nsamples = 27\nvalue = [12, 15]"] ;
832 -> 833 ;
834 [label="X[0] <= 1.15\ngini = 0.494\nsamples = 9\nvalue = [5, 4]"] ;
833 -> 834 ;
835 [label="gini = 0.5\nsamples = 6\nvalue = [3, 3]"] ;
834 -> 835 ;
836 [label="gini = 0.444\nsamples = 3\nvalue = [2, 1]"] ;
834 -> 836 ;
837 [label="X[0] <= 1.45\ngini = 0.475\nsamples = 18\nvalue = [7, 11]"] ;
833 -> 837 ;
838 [label="X[0] <= 1.35\ngini = 0.375\nsamples = 8\nvalue = [2, 6]"] ;
837 -> 838 ;
839 [label="gini = 0.375\nsamples = 4\nvalue = [1, 3]"] ;
838 -> 839 ;
840 [label="gini = 0.375\nsamples = 4\nvalue = [1, 3]"] ;
838 -> 840 ;
841 [label="X[0] <= 1.55\ngini = 0.5\nsamples = 10\nvalue = [5, 5]"] ;
837 -> 841 ;
842 [label="gini = 0.5\nsamples = 8\nvalue = [4, 4]"] ;
841 -> 842 ;
843 [label="gini = 0.5\nsamples = 2\nvalue = [1, 1]"] ;
841 -> 843 ;
844 [label="gini = 0.0\nsamples = 2\nvalue = [2, 0]"] ;
832 -> 844 ;
845 [label="X[0] <= 1.55\ngini = 0.465\nsamples = 106\nvalue = [39, 67]"] ;
831 -> 845 ;
846 [label="X[0] <= 1.25\ngini = 0.452\nsamples = 84\nvalue = [29, 55]"] ;
845 -> 846 ;
847 [label="X[1] <= 10.65\ngini = 0.482\nsamples = 37\nvalue = [15, 22]"] ;
846 -> 847 ;
848 [label="X[1] <= 10.55\ngini = 0.498\nsamples = 17\nvalue = [8, 9]"] ;
847 -> 848 ;
849 [label="X[0] <= 1.15\ngini = 0.469\nsamples = 8\nvalue = [3, 5]"] ;
848 -> 849 ;
850 [label="gini = 0.444\nsamples = 3\nvalue = [1, 2]"] ;
849 -> 850 ;
851 [label="gini = 0.48\nsamples = 5\nvalue = [2, 3]"] ;
849 -> 851 ;
852 [label="X[0] <= 1.15\ngini = 0.494\nsamples = 9\nvalue = [5, 4]"] ;
848 -> 852 ;
853 [label="gini = 0.5\nsamples = 2\nvalue = [1, 1]"] ;
852 -> 853 ;
854 [label="gini = 0.49\nsamples = 7\nvalue = [4, 3]"] ;
852 -> 854 ;
855 [label="X[1] <= 10.75\ngini = 0.455\nsamples = 20\nvalue = [7, 13]"] ;
847 -> 855 ;
856 [label="gini = 0.0\nsamples = 5\nvalue = [0, 5]"] ;
855 -> 856 ;
857 [label="X[1] <= 10.85\ngini = 0.498\nsamples = 15\nvalue = [7, 8]"] ;
855 -> 857 ;
858 [label="X[0] <= 1.15\ngini = 0.5\nsamples = 10\nvalue = [5, 5]"] ;
857 -> 858 ;
859 [label="gini = 0.5\nsamples = 2\nvalue = [1, 1]"] ;
858 -> 859 ;
860 [label="gini = 0.5\nsamples = 8\nvalue = [4, 4]"] ;
858 -> 860 ;
861 [label="X[0] <= 1.15\ngini = 0.48\nsamples = 5\nvalue = [2, 3]"] ;
857 -> 861 ;
862 [label="gini = 0.5\nsamples = 2\nvalue = [1, 1]"] ;
861 -> 862 ;
863 [label="gini = 0.444\nsamples = 3\nvalue = [1, 2]"] ;
861 -> 863 ;
864 [label="X[0] <= 1.35\ngini = 0.418\nsamples = 47\nvalue = [14, 33]"] ;
846 -> 864 ;
865 [label="X[1] <= 10.55\ngini = 0.278\nsamples = 12\nvalue = [2, 10]"] ;
864 -> 865 ;
866 [label="gini = 0.0\nsamples = 3\nvalue = [0, 3]"] ;
865 -> 866 ;
867 [label="X[1] <= 10.65\ngini = 0.346\nsamples = 9\nvalue = [2, 7]"] ;
865 -> 867 ;
868 [label="gini = 0.375\nsamples = 4\nvalue = [1, 3]"] ;
867 -> 868 ;
869 [label="X[1] <= 10.75\ngini = 0.32\nsamples = 5\nvalue = [1, 4]"] ;
867 -> 869 ;
870 [label="gini = 0.0\nsamples = 1\nvalue = [0, 1]"] ;
869 -> 870 ;
871 [label="gini = 0.375\nsamples = 4\nvalue = [1, 3]"] ;
869 -> 871 ;
872 [label="X[0] <= 1.45\ngini = 0.451\nsamples = 35\nvalue = [12, 23]"] ;
864 -> 872 ;
873 [label="X[1] <= 10.75\ngini = 0.48\nsamples = 20\nvalue = [8, 12]"] ;
872 -> 873 ;
874 [label="X[1] <= 10.65\ngini = 0.486\nsamples = 12\nvalue = [7, 5]"] ;
873 -> 874 ;
875 [label="X[1] <= 10.55\ngini = 0.5\nsamples = 8\nvalue = [4, 4]"] ;
874 -> 875 ;
876 [label="gini = 0.49\nsamples = 7\nvalue = [4, 3]"] ;
875 -> 876 ;
877 [label="gini = 0.0\nsamples = 1\nvalue = [0, 1]"] ;
875 -> 877 ;
878 [label="gini = 0.375\nsamples = 4\nvalue = [3, 1]"] ;
874 -> 878 ;
879 [label="X[1] <= 10.85\ngini = 0.219\nsamples = 8\nvalue = [1, 7]"] ;
873 -> 879 ;
880 [label="gini = 0.32\nsamples = 5\nvalue = [1, 4]"] ;
879 -> 880 ;
881 [label="gini = 0.0\nsamples = 3\nvalue = [0, 3]"] ;
879 -> 881 ;
882 [label="X[1] <= 10.75\ngini = 0.391\nsamples = 15\nvalue = [4, 11]"] ;
872 -> 882 ;
883 [label="X[1] <= 10.55\ngini = 0.18\nsamples = 10\nvalue = [1, 9]"] ;
882 -> 883 ;
884 [label="gini = 0.32\nsamples = 5\nvalue = [1, 4]"] ;
883 -> 884 ;
885 [label="gini = 0.0\nsamples = 5\nvalue = [0, 5]"] ;
883 -> 885 ;
886 [label="X[1] <= 10.85\ngini = 0.48\nsamples = 5\nvalue = [3, 2]"] ;
882 -> 886 ;
887 [label="gini = 0.5\nsamples = 4\nvalue = [2, 2]"] ;
886 -> 887 ;
888 [label="gini = 0.0\nsamples = 1\nvalue = [1, 0]"] ;
886 -> 888 ;
889 [label="X[1] <= 10.75\ngini = 0.496\nsamples = 22\nvalue = [10, 12]"] ;
845 -> 889 ;
890 [label="X[1] <= 10.6\ngini = 0.5\nsamples = 14\nvalue = [7, 7]"] ;
889 -> 890 ;
891 [label="gini = 0.496\nsamples = 11\nvalue = [5, 6]"] ;
890 -> 891 ;
892 [label="gini = 0.444\nsamples = 3\nvalue = [2, 1]"] ;
890 -> 892 ;
893 [label="X[1] <= 10.85\ngini = 0.469\nsamples = 8\nvalue = [3, 5]"] ;
889 -> 893 ;
894 [label="gini = 0.48\nsamples = 5\nvalue = [2, 3]"] ;
893 -> 894 ;
895 [label="gini = 0.444\nsamples = 3\nvalue = [1, 2]"] ;
893 -> 895 ;
896 [label="X[1] <= 10.85\ngini = 0.355\nsamples = 78\nvalue = [18, 60]"] ;
814 -> 896 ;
897 [label="X[1] <= 10.583\ngini = 0.316\nsamples = 66\nvalue = [13, 53]"] ;
896 -> 897 ;
898 [label="X[0] <= 2.15\ngini = 0.431\nsamples = 35\nvalue = [11, 24]"] ;
897 -> 898 ;
899 [label="X[0] <= 2.05\ngini = 0.473\nsamples = 26\nvalue = [10, 16]"] ;
898 -> 899 ;
900 [label="X[1] <= 10.533\ngini = 0.461\nsamples = 25\nvalue = [9, 16]"] ;
899 -> 900 ;
901 [label="X[0] <= 1.95\ngini = 0.444\nsamples = 24\nvalue = [8, 16]"] ;
900 -> 901 ;
902 [label="X[0] <= 1.75\ngini = 0.465\nsamples = 19\nvalue = [7, 12]"] ;
901 -> 902 ;
903 [label="X[1] <= 10.45\ngini = 0.426\nsamples = 13\nvalue = [4, 9]"] ;
902 -> 903 ;
904 [label="gini = 0.469\nsamples = 8\nvalue = [3, 5]"] ;
903 -> 904 ;
905 [label="gini = 0.32\nsamples = 5\nvalue = [1, 4]"] ;
903 -> 905 ;
906 [label="X[1] <= 10.45\ngini = 0.5\nsamples = 6\nvalue = [3, 3]"] ;
902 -> 906 ;
907 [label="X[0] <= 1.85\ngini = 0.444\nsamples = 3\nvalue = [1, 2]"] ;
906 -> 907 ;
908 [label="gini = 0.5\nsamples = 2\nvalue = [1, 1]"] ;
907 -> 908 ;
909 [label="gini = 0.0\nsamples = 1\nvalue = [0, 1]"] ;
907 -> 909 ;
910 [label="X[0] <= 1.85\ngini = 0.444\nsamples = 3\nvalue = [2, 1]"] ;
906 -> 910 ;
911 [label="gini = 0.0\nsamples = 1\nvalue = [1, 0]"] ;
910 -> 911 ;
912 [label="gini = 0.5\nsamples = 2\nvalue = [1, 1]"] ;
910 -> 912 ;
913 [label="X[1] <= 10.45\ngini = 0.32\nsamples = 5\nvalue = [1, 4]"] ;
901 -> 913 ;
914 [label="gini = 0.444\nsamples = 3\nvalue = [1, 2]"] ;
913 -> 914 ;
915 [label="gini = 0.0\nsamples = 2\nvalue = [0, 2]"] ;
913 -> 915 ;
916 [label="gini = 0.0\nsamples = 1\nvalue = [1, 0]"] ;
900 -> 916 ;
917 [label="gini = 0.0\nsamples = 1\nvalue = [1, 0]"] ;
899 -> 917 ;
918 [label="X[0] <= 2.85\ngini = 0.198\nsamples = 9\nvalue = [1, 8]"] ;
898 -> 918 ;
919 [label="gini = 0.0\nsamples = 8\nvalue = [0, 8]"] ;
918 -> 919 ;
920 [label="gini = 0.0\nsamples = 1\nvalue = [1, 0]"] ;
918 -> 920 ;
921 [label="X[1] <= 10.75\ngini = 0.121\nsamples = 31\nvalue = [2, 29]"] ;
897 -> 921 ;
922 [label="gini = 0.0\nsamples = 15\nvalue = [0, 15]"] ;
921 -> 922 ;
923 [label="X[0] <= 2.3\ngini = 0.219\nsamples = 16\nvalue = [2, 14]"] ;
921 -> 923 ;
924 [label="X[0] <= 2.0\ngini = 0.278\nsamples = 12\nvalue = [2, 10]"] ;
923 -> 924 ;
925 [label="X[0] <= 1.75\ngini = 0.165\nsamples = 11\nvalue = [1, 10]"] ;
924 -> 925 ;
926 [label="gini = 0.278\nsamples = 6\nvalue = [1, 5]"] ;
925 -> 926 ;
927 [label="gini = 0.0\nsamples = 5\nvalue = [0, 5]"] ;
925 -> 927 ;
928 [label="gini = 0.0\nsamples = 1\nvalue = [1, 0]"] ;
924 -> 928 ;
929 [label="gini = 0.0\nsamples = 4\nvalue = [0, 4]"] ;
923 -> 929 ;
930 [label="X[0] <= 2.55\ngini = 0.486\nsamples = 12\nvalue = [5, 7]"] ;
896 -> 930 ;
931 [label="X[0] <= 1.75\ngini = 0.5\nsamples = 10\nvalue = [5, 5]"] ;
930 -> 931 ;
932 [label="gini = 0.0\nsamples = 1\nvalue = [1, 0]"] ;
931 -> 932 ;
933 [label="X[0] <= 1.95\ngini = 0.494\nsamples = 9\nvalue = [4, 5]"] ;
931 -> 933 ;
934 [label="gini = 0.0\nsamples = 2\nvalue = [0, 2]"] ;
933 -> 934 ;
935 [label="X[0] <= 2.25\ngini = 0.49\nsamples = 7\nvalue = [4, 3]"] ;
933 -> 935 ;
936 [label="X[0] <= 2.05\ngini = 0.5\nsamples = 6\nvalue = [3, 3]"] ;
935 -> 936 ;
937 [label="gini = 0.48\nsamples = 5\nvalue = [3, 2]"] ;
936 -> 937 ;
938 [label="gini = 0.0\nsamples = 1\nvalue = [0, 1]"] ;
936 -> 938 ;
939 [label="gini = 0.0\nsamples = 1\nvalue = [1, 0]"] ;
935 -> 939 ;
940 [label="gini = 0.0\nsamples = 2\nvalue = [0, 2]"] ;
930 -> 940 ;
941 [label="X[0] <= 15.0\ngini = 0.426\nsamples = 495\nvalue = [152, 343]"] ;
699 -> 941 ;
942 [label="X[0] <= 7.15\ngini = 0.417\nsamples = 472\nvalue = [140, 332]"] ;
941 -> 942 ;
943 [label="X[1] <= 10.45\ngini = 0.45\nsamples = 208\nvalue = [71, 137]"] ;
942 -> 943 ;
944 [label="X[0] <= 3.8\ngini = 0.481\nsamples = 122\nvalue = [49, 73]"] ;
943 -> 944 ;
945 [label="X[1] <= 10.15\ngini = 0.231\nsamples = 15\nvalue = [2, 13]"] ;
944 -> 945 ;
946 [label="gini = 0.0\nsamples = 10\nvalue = [0, 10]"] ;
945 -> 946 ;
947 [label="X[0] <= 3.3\ngini = 0.48\nsamples = 5\nvalue = [2, 3]"] ;
945 -> 947 ;
948 [label="X[0] <= 3.15\ngini = 0.444\nsamples = 3\nvalue = [2, 1]"] ;
947 -> 948 ;
949 [label="gini = 0.0\nsamples = 1\nvalue = [1, 0]"] ;
948 -> 949 ;
950 [label="gini = 0.5\nsamples = 2\nvalue = [1, 1]"] ;
948 -> 950 ;
951 [label="gini = 0.0\nsamples = 2\nvalue = [0, 2]"] ;
947 -> 951 ;
952 [label="X[0] <= 4.45\ngini = 0.493\nsamples = 107\nvalue = [47, 60]"] ;
944 -> 952 ;
953 [label="gini = 0.0\nsamples = 4\nvalue = [4, 0]"] ;
952 -> 953 ;
954 [label="X[1] <= 10.05\ngini = 0.486\nsamples = 103\nvalue = [43, 60]"] ;
952 -> 954 ;
955 [label="X[1] <= 9.95\ngini = 0.5\nsamples = 50\nvalue = [25, 25]"] ;
954 -> 955 ;
956 [label="X[0] <= 6.55\ngini = 0.484\nsamples = 34\nvalue = [14, 20]"] ;
955 -> 956 ;
957 [label="X[0] <= 5.85\ngini = 0.499\nsamples = 25\nvalue = [13, 12]"] ;
956 -> 957 ;
958 [label="X[0] <= 5.05\ngini = 0.492\nsamples = 16\nvalue = [7, 9]"] ;
957 -> 958 ;
959 [label="X[0] <= 4.9\ngini = 0.49\nsamples = 7\nvalue = [4, 3]"] ;
958 -> 959 ;
960 [label="X[0] <= 4.55\ngini = 0.48\nsamples = 5\nvalue = [2, 3]"] ;
959 -> 960 ;
961 [label="gini = 0.0\nsamples = 1\nvalue = [0, 1]"] ;
960 -> 961 ;
962 [label="X[0] <= 4.65\ngini = 0.5\nsamples = 4\nvalue = [2, 2]"] ;
960 -> 962 ;
963 [label="gini = 0.0\nsamples = 1\nvalue = [1, 0]"] ;
962 -> 963 ;
964 [label="X[0] <= 4.75\ngini = 0.444\nsamples = 3\nvalue = [1, 2]"] ;
962 -> 964 ;
965 [label="gini = 0.0\nsamples = 1\nvalue = [0, 1]"] ;
964 -> 965 ;
966 [label="gini = 0.5\nsamples = 2\nvalue = [1, 1]"] ;
964 -> 966 ;
967 [label="gini = 0.0\nsamples = 2\nvalue = [2, 0]"] ;
959 -> 967 ;
968 [label="X[0] <= 5.3\ngini = 0.444\nsamples = 9\nvalue = [3, 6]"] ;
958 -> 968 ;
969 [label="gini = 0.0\nsamples = 3\nvalue = [0, 3]"] ;
968 -> 969 ;
970 [label="X[0] <= 5.45\ngini = 0.5\nsamples = 6\nvalue = [3, 3]"] ;
968 -> 970 ;
971 [label="gini = 0.0\nsamples = 1\nvalue = [1, 0]"] ;
970 -> 971 ;
972 [label="X[0] <= 5.55\ngini = 0.48\nsamples = 5\nvalue = [2, 3]"] ;
970 -> 972 ;
973 [label="gini = 0.0\nsamples = 1\nvalue = [0, 1]"] ;
972 -> 973 ;
974 [label="X[1] <= 9.85\ngini = 0.5\nsamples = 4\nvalue = [2, 2]"] ;
972 -> 974 ;
975 [label="X[0] <= 5.7\ngini = 0.444\nsamples = 3\nvalue = [1, 2]"] ;
974 -> 975 ;
976 [label="gini = 0.5\nsamples = 2\nvalue = [1, 1]"] ;
975 -> 976 ;
977 [label="gini = 0.0\nsamples = 1\nvalue = [0, 1]"] ;
975 -> 977 ;
978 [label="gini = 0.0\nsamples = 1\nvalue = [1, 0]"] ;
974 -> 978 ;
979 [label="X[1] <= 9.85\ngini = 0.444\nsamples = 9\nvalue = [6, 3]"] ;
957 -> 979 ;
980 [label="gini = 0.0\nsamples = 4\nvalue = [4, 0]"] ;
979 -> 980 ;
981 [label="X[0] <= 6.45\ngini = 0.48\nsamples = 5\nvalue = [2, 3]"] ;
979 -> 981 ;
982 [label="X[0] <= 6.25\ngini = 0.375\nsamples = 4\nvalue = [1, 3]"] ;
981 -> 982 ;
983 [label="gini = 0.0\nsamples = 1\nvalue = [0, 1]"] ;
982 -> 983 ;
984 [label="gini = 0.444\nsamples = 3\nvalue = [1, 2]"] ;
982 -> 984 ;
985 [label="gini = 0.0\nsamples = 1\nvalue = [1, 0]"] ;
981 -> 985 ;
986 [label="X[0] <= 6.75\ngini = 0.198\nsamples = 9\nvalue = [1, 8]"] ;
956 -> 986 ;
987 [label="X[0] <= 6.65\ngini = 0.32\nsamples = 5\nvalue = [1, 4]"] ;
986 -> 987 ;
988 [label="gini = 0.0\nsamples = 2\nvalue = [0, 2]"] ;
987 -> 988 ;
989 [label="X[1] <= 9.85\ngini = 0.444\nsamples = 3\nvalue = [1, 2]"] ;
987 -> 989 ;
990 [label="gini = 0.0\nsamples = 1\nvalue = [0, 1]"] ;
989 -> 990 ;
991 [label="gini = 0.5\nsamples = 2\nvalue = [1, 1]"] ;
989 -> 991 ;
992 [label="gini = 0.0\nsamples = 4\nvalue = [0, 4]"] ;
986 -> 992 ;
993 [label="X[0] <= 6.95\ngini = 0.43\nsamples = 16\nvalue = [11, 5]"] ;
955 -> 993 ;
994 [label="X[0] <= 6.85\ngini = 0.459\nsamples = 14\nvalue = [9, 5]"] ;
993 -> 994 ;
995 [label="X[0] <= 6.35\ngini = 0.426\nsamples = 13\nvalue = [9, 4]"] ;
994 -> 995 ;
996 [label="X[0] <= 6.2\ngini = 0.48\nsamples = 10\nvalue = [6, 4]"] ;
995 -> 996 ;
997 [label="X[0] <= 5.4\ngini = 0.375\nsamples = 8\nvalue = [6, 2]"] ;
996 -> 997 ;
998 [label="X[0] <= 4.7\ngini = 0.48\nsamples = 5\nvalue = [3, 2]"] ;
997 -> 998 ;
999 [label="gini = 0.0\nsamples = 1\nvalue = [1, 0]"] ;
998 -> 999 ;
1000 [label="X[0] <= 4.85\ngini = 0.5\nsamples = 4\nvalue = [2, 2]"] ;
998 -> 1000 ;
1001 [label="gini = 0.5\nsamples = 2\nvalue = [1, 1]"] ;
1000 -> 1001 ;
1002 [label="gini = 0.5\nsamples = 2\nvalue = [1, 1]"] ;
1000 -> 1002 ;
1003 [label="gini = 0.0\nsamples = 3\nvalue = [3, 0]"] ;
997 -> 1003 ;
1004 [label="gini = 0.0\nsamples = 2\nvalue = [0, 2]"] ;
996 -> 1004 ;
1005 [label="gini = 0.0\nsamples = 3\nvalue = [3, 0]"] ;
995 -> 1005 ;
1006 [label="gini = 0.0\nsamples = 1\nvalue = [0, 1]"] ;
994 -> 1006 ;
1007 [label="gini = 0.0\nsamples = 2\nvalue = [2, 0]"] ;
993 -> 1007 ;
1008 [label="X[0] <= 6.95\ngini = 0.449\nsamples = 53\nvalue = [18, 35]"] ;
954 -> 1008 ;
1009 [label="X[0] <= 4.55\ngini = 0.405\nsamples = 46\nvalue = [13, 33]"] ;
1008 -> 1009 ;
1010 [label="gini = 0.0\nsamples = 1\nvalue = [1, 0]"] ;
1009 -> 1010 ;
1011 [label="X[1] <= 10.175\ngini = 0.391\nsamples = 45\nvalue = [12, 33]"] ;
1009 -> 1011 ;
1012 [label="X[0] <= 5.4\ngini = 0.26\nsamples = 13\nvalue = [2, 11]"] ;
1011 -> 1012 ;
1013 [label="gini = 0.5\nsamples = 4\nvalue = [2, 2]"] ;
1012 -> 1013 ;
1014 [label="gini = 0.0\nsamples = 9\nvalue = [0, 9]"] ;
1012 -> 1014 ;
1015 [label="X[1] <= 10.35\ngini = 0.43\nsamples = 32\nvalue = [10, 22]"] ;
1011 -> 1015 ;
1016 [label="X[0] <= 4.95\ngini = 0.463\nsamples = 22\nvalue = [8, 14]"] ;
1015 -> 1016 ;
1017 [label="gini = 0.0\nsamples = 4\nvalue = [0, 4]"] ;
1016 -> 1017 ;
1018 [label="X[1] <= 10.25\ngini = 0.494\nsamples = 18\nvalue = [8, 10]"] ;
1016 -> 1018 ;
1019 [label="X[0] <= 6.85\ngini = 0.444\nsamples = 12\nvalue = [4, 8]"] ;
1018 -> 1019 ;
1020 [label="X[0] <= 6.45\ngini = 0.397\nsamples = 11\nvalue = [3, 8]"] ;
1019 -> 1020 ;
1021 [label="X[0] <= 6.35\ngini = 0.48\nsamples = 5\nvalue = [2, 3]"] ;
1020 -> 1021 ;
1022 [label="X[0] <= 5.75\ngini = 0.375\nsamples = 4\nvalue = [1, 3]"] ;
1021 -> 1022 ;
1023 [label="X[0] <= 5.35\ngini = 0.5\nsamples = 2\nvalue = [1, 1]"] ;
1022 -> 1023 ;
1024 [label="gini = 0.0\nsamples = 1\nvalue = [0, 1]"] ;
1023 -> 1024 ;
1025 [label="gini = 0.0\nsamples = 1\nvalue = [1, 0]"] ;
1023 -> 1025 ;
1026 [label="gini = 0.0\nsamples = 2\nvalue = [0, 2]"] ;
1022 -> 1026 ;
1027 [label="gini = 0.0\nsamples = 1\nvalue = [1, 0]"] ;
1021 -> 1027 ;
1028 [label="X[0] <= 6.75\ngini = 0.278\nsamples = 6\nvalue = [1, 5]"] ;
1020 -> 1028 ;
1029 [label="gini = 0.0\nsamples = 3\nvalue = [0, 3]"] ;
1028 -> 1029 ;
1030 [label="gini = 0.444\nsamples = 3\nvalue = [1, 2]"] ;
1028 -> 1030 ;
1031 [label="gini = 0.0\nsamples = 1\nvalue = [1, 0]"] ;
1019 -> 1031 ;
1032 [label="X[0] <= 5.7\ngini = 0.444\nsamples = 6\nvalue = [4, 2]"] ;
1018 -> 1032 ;
1033 [label="X[0] <= 5.1\ngini = 0.5\nsamples = 4\nvalue = [2, 2]"] ;
1032 -> 1033 ;
1034 [label="gini = 0.0\nsamples = 1\nvalue = [1, 0]"] ;
1033 -> 1034 ;
1035 [label="X[0] <= 5.35\ngini = 0.444\nsamples = 3\nvalue = [1, 2]"] ;
1033 -> 1035 ;
1036 [label="gini = 0.0\nsamples = 1\nvalue = [0, 1]"] ;
1035 -> 1036 ;
1037 [label="X[0] <= 5.55\ngini = 0.5\nsamples = 2\nvalue = [1, 1]"] ;
1035 -> 1037 ;
1038 [label="gini = 0.0\nsamples = 1\nvalue = [1, 0]"] ;
1037 -> 1038 ;
1039 [label="gini = 0.0\nsamples = 1\nvalue = [0, 1]"] ;
1037 -> 1039 ;
1040 [label="gini = 0.0\nsamples = 2\nvalue = [2, 0]"] ;
1032 -> 1040 ;
1041 [label="X[0] <= 4.8\ngini = 0.32\nsamples = 10\nvalue = [2, 8]"] ;
1015 -> 1041 ;
1042 [label="gini = 0.0\nsamples = 1\nvalue = [1, 0]"] ;
1041 -> 1042 ;
1043 [label="X[0] <= 6.35\ngini = 0.198\nsamples = 9\nvalue = [1, 8]"] ;
1041 -> 1043 ;
1044 [label="X[0] <= 5.95\ngini = 0.375\nsamples = 4\nvalue = [1, 3]"] ;
1043 -> 1044 ;
1045 [label="gini = 0.0\nsamples = 3\nvalue = [0, 3]"] ;
1044 -> 1045 ;
1046 [label="gini = 0.0\nsamples = 1\nvalue = [1, 0]"] ;
1044 -> 1046 ;
1047 [label="gini = 0.0\nsamples = 5\nvalue = [0, 5]"] ;
1043 -> 1047 ;
1048 [label="X[1] <= 10.35\ngini = 0.408\nsamples = 7\nvalue = [5, 2]"] ;
1008 -> 1048 ;
1049 [label="X[0] <= 7.05\ngini = 0.5\nsamples = 4\nvalue = [2, 2]"] ;
1048 -> 1049 ;
1050 [label="X[1] <= 10.25\ngini = 0.444\nsamples = 3\nvalue = [1, 2]"] ;
1049 -> 1050 ;
1051 [label="gini = 0.5\nsamples = 2\nvalue = [1, 1]"] ;
1050 -> 1051 ;
1052 [label="gini = 0.0\nsamples = 1\nvalue = [0, 1]"] ;
1050 -> 1052 ;
1053 [label="gini = 0.0\nsamples = 1\nvalue = [1, 0]"] ;
1049 -> 1053 ;
1054 [label="gini = 0.0\nsamples = 3\nvalue = [3, 0]"] ;
1048 -> 1054 ;
1055 [label="X[0] <= 4.75\ngini = 0.381\nsamples = 86\nvalue = [22, 64]"] ;
943 -> 1055 ;
1056 [label="X[0] <= 3.85\ngini = 0.231\nsamples = 30\nvalue = [4, 26]"] ;
1055 -> 1056 ;
1057 [label="X[0] <= 3.45\ngini = 0.397\nsamples = 11\nvalue = [3, 8]"] ;
1056 -> 1057 ;
1058 [label="gini = 0.0\nsamples = 5\nvalue = [0, 5]"] ;
1057 -> 1058 ;
1059 [label="X[1] <= 10.85\ngini = 0.5\nsamples = 6\nvalue = [3, 3]"] ;
1057 -> 1059 ;
1060 [label="X[0] <= 3.65\ngini = 0.48\nsamples = 5\nvalue = [2, 3]"] ;
1059 -> 1060 ;
1061 [label="gini = 0.0\nsamples = 2\nvalue = [0, 2]"] ;
1060 -> 1061 ;
1062 [label="X[1] <= 10.75\ngini = 0.444\nsamples = 3\nvalue = [2, 1]"] ;
1060 -> 1062 ;
1063 [label="gini = 0.0\nsamples = 2\nvalue = [2, 0]"] ;
1062 -> 1063 ;
1064 [label="gini = 0.0\nsamples = 1\nvalue = [0, 1]"] ;
1062 -> 1064 ;
1065 [label="gini = 0.0\nsamples = 1\nvalue = [1, 0]"] ;
1059 -> 1065 ;
1066 [label="X[0] <= 4.55\ngini = 0.1\nsamples = 19\nvalue = [1, 18]"] ;
1056 -> 1066 ;
1067 [label="gini = 0.0\nsamples = 11\nvalue = [0, 11]"] ;
1066 -> 1067 ;
1068 [label="X[0] <= 4.65\ngini = 0.219\nsamples = 8\nvalue = [1, 7]"] ;
1066 -> 1068 ;
1069 [label="gini = 0.444\nsamples = 3\nvalue = [1, 2]"] ;
1068 -> 1069 ;
1070 [label="gini = 0.0\nsamples = 5\nvalue = [0, 5]"] ;
1068 -> 1070 ;
1071 [label="X[0] <= 4.9\ngini = 0.436\nsamples = 56\nvalue = [18, 38]"] ;
1055 -> 1071 ;
1072 [label="gini = 0.0\nsamples = 2\nvalue = [2, 0]"] ;
1071 -> 1072 ;
1073 [label="X[0] <= 5.25\ngini = 0.417\nsamples = 54\nvalue = [16, 38]"] ;
1071 -> 1073 ;
1074 [label="gini = 0.0\nsamples = 5\nvalue = [0, 5]"] ;
1073 -> 1074 ;
1075 [label="X[0] <= 5.65\ngini = 0.44\nsamples = 49\nvalue = [16, 33]"] ;
1073 -> 1075 ;
1076 [label="X[0] <= 5.55\ngini = 0.49\nsamples = 7\nvalue = [4, 3]"] ;
1075 -> 1076 ;
1077 [label="X[1] <= 10.6\ngini = 0.375\nsamples = 4\nvalue = [1, 3]"] ;
1076 -> 1077 ;
1078 [label="gini = 0.5\nsamples = 2\nvalue = [1, 1]"] ;
1077 -> 1078 ;
1079 [label="gini = 0.0\nsamples = 2\nvalue = [0, 2]"] ;
1077 -> 1079 ;
1080 [label="gini = 0.0\nsamples = 3\nvalue = [3, 0]"] ;
1076 -> 1080 ;
1081 [label="X[0] <= 6.05\ngini = 0.408\nsamples = 42\nvalue = [12, 30]"] ;
1075 -> 1081 ;
1082 [label="X[1] <= 10.55\ngini = 0.18\nsamples = 10\nvalue = [1, 9]"] ;
1081 -> 1082 ;
1083 [label="X[0] <= 5.75\ngini = 0.245\nsamples = 7\nvalue = [1, 6]"] ;
1082 -> 1083 ;
1084 [label="gini = 0.0\nsamples = 1\nvalue = [0, 1]"] ;
1083 -> 1084 ;
1085 [label="gini = 0.278\nsamples = 6\nvalue = [1, 5]"] ;
1083 -> 1085 ;
1086 [label="gini = 0.0\nsamples = 3\nvalue = [0, 3]"] ;
1082 -> 1086 ;
1087 [label="X[0] <= 6.75\ngini = 0.451\nsamples = 32\nvalue = [11, 21]"] ;
1081 -> 1087 ;
1088 [label="X[0] <= 6.4\ngini = 0.49\nsamples = 21\nvalue = [9, 12]"] ;
1087 -> 1088 ;
1089 [label="X[1] <= 10.75\ngini = 0.397\nsamples = 11\nvalue = [3, 8]"] ;
1088 -> 1089 ;
1090 [label="gini = 0.0\nsamples = 6\nvalue = [0, 6]"] ;
1089 -> 1090 ;
1091 [label="X[0] <= 6.25\ngini = 0.48\nsamples = 5\nvalue = [3, 2]"] ;
1089 -> 1091 ;
1092 [label="gini = 0.0\nsamples = 3\nvalue = [3, 0]"] ;
1091 -> 1092 ;
1093 [label="gini = 0.0\nsamples = 2\nvalue = [0, 2]"] ;
1091 -> 1093 ;
1094 [label="X[1] <= 10.75\ngini = 0.48\nsamples = 10\nvalue = [6, 4]"] ;
1088 -> 1094 ;
1095 [label="X[1] <= 10.65\ngini = 0.245\nsamples = 7\nvalue = [6, 1]"] ;
1094 -> 1095 ;
1096 [label="X[0] <= 6.6\ngini = 0.375\nsamples = 4\nvalue = [3, 1]"] ;
1095 -> 1096 ;
1097 [label="gini = 0.0\nsamples = 2\nvalue = [2, 0]"] ;
1096 -> 1097 ;
1098 [label="gini = 0.5\nsamples = 2\nvalue = [1, 1]"] ;
1096 -> 1098 ;
1099 [label="gini = 0.0\nsamples = 3\nvalue = [3, 0]"] ;
1095 -> 1099 ;
1100 [label="gini = 0.0\nsamples = 3\nvalue = [0, 3]"] ;
1094 -> 1100 ;
1101 [label="X[0] <= 7.025\ngini = 0.298\nsamples = 11\nvalue = [2, 9]"] ;
1087 -> 1101 ;
1102 [label="gini = 0.0\nsamples = 7\nvalue = [0, 7]"] ;
1101 -> 1102 ;
1103 [label="X[1] <= 10.7\ngini = 0.5\nsamples = 4\nvalue = [2, 2]"] ;
1101 -> 1103 ;
1104 [label="gini = 0.444\nsamples = 3\nvalue = [2, 1]"] ;
1103 -> 1104 ;
1105 [label="gini = 0.0\nsamples = 1\nvalue = [0, 1]"] ;
1103 -> 1105 ;
1106 [label="X[1] <= 10.575\ngini = 0.386\nsamples = 264\nvalue = [69, 195]"] ;
942 -> 1106 ;
1107 [label="X[1] <= 10.35\ngini = 0.36\nsamples = 200\nvalue = [47, 153]"] ;
1106 -> 1107 ;
1108 [label="X[0] <= 13.7\ngini = 0.397\nsamples = 143\nvalue = [39, 104]"] ;
1107 -> 1108 ;
1109 [label="X[0] <= 11.7\ngini = 0.414\nsamples = 123\nvalue = [36, 87]"] ;
1108 -> 1109 ;
1110 [label="X[0] <= 7.55\ngini = 0.361\nsamples = 89\nvalue = [21, 68]"] ;
1109 -> 1110 ;
1111 [label="X[1] <= 10.25\ngini = 0.459\nsamples = 14\nvalue = [5, 9]"] ;
1110 -> 1111 ;
1112 [label="X[1] <= 10.05\ngini = 0.426\nsamples = 13\nvalue = [4, 9]"] ;
1111 -> 1112 ;
1113 [label="X[1] <= 9.9\ngini = 0.48\nsamples = 10\nvalue = [4, 6]"] ;
1112 -> 1113 ;
1114 [label="X[0] <= 7.45\ngini = 0.444\nsamples = 6\nvalue = [2, 4]"] ;
1113 -> 1114 ;
1115 [label="X[0] <= 7.3\ngini = 0.5\nsamples = 4\nvalue = [2, 2]"] ;
1114 -> 1115 ;
1116 [label="gini = 0.5\nsamples = 2\nvalue = [1, 1]"] ;
1115 -> 1116 ;
1117 [label="gini = 0.5\nsamples = 2\nvalue = [1, 1]"] ;
1115 -> 1117 ;
1118 [label="gini = 0.0\nsamples = 2\nvalue = [0, 2]"] ;
1114 -> 1118 ;
1119 [label="X[0] <= 7.4\ngini = 0.5\nsamples = 4\nvalue = [2, 2]"] ;
1113 -> 1119 ;
1120 [label="gini = 0.0\nsamples = 1\nvalue = [0, 1]"] ;
1119 -> 1120 ;
1121 [label="gini = 0.444\nsamples = 3\nvalue = [2, 1]"] ;
1119 -> 1121 ;
1122 [label="gini = 0.0\nsamples = 3\nvalue = [0, 3]"] ;
1112 -> 1122 ;
1123 [label="gini = 0.0\nsamples = 1\nvalue = [1, 0]"] ;
1111 -> 1123 ;
1124 [label="X[1] <= 9.85\ngini = 0.336\nsamples = 75\nvalue = [16, 59]"] ;
1110 -> 1124 ;
1125 [label="X[0] <= 9.8\ngini = 0.142\nsamples = 13\nvalue = [1, 12]"] ;
1124 -> 1125 ;
1126 [label="gini = 0.0\nsamples = 6\nvalue = [0, 6]"] ;
1125 -> 1126 ;
1127 [label="X[0] <= 10.1\ngini = 0.245\nsamples = 7\nvalue = [1, 6]"] ;
1125 -> 1127 ;
1128 [label="gini = 0.0\nsamples = 1\nvalue = [1, 0]"] ;
1127 -> 1128 ;
1129 [label="gini = 0.0\nsamples = 6\nvalue = [0, 6]"] ;
1127 -> 1129 ;
1130 [label="X[0] <= 7.75\ngini = 0.367\nsamples = 62\nvalue = [15, 47]"] ;
1124 -> 1130 ;
1131 [label="gini = 0.0\nsamples = 5\nvalue = [0, 5]"] ;
1130 -> 1131 ;
1132 [label="X[0] <= 11.2\ngini = 0.388\nsamples = 57\nvalue = [15, 42]"] ;
1130 -> 1132 ;
1133 [label="X[0] <= 10.85\ngini = 0.401\nsamples = 54\nvalue = [15, 39]"] ;
1132 -> 1133 ;
1134 [label="X[1] <= 10.25\ngini = 0.385\nsamples = 50\nvalue = [13, 37]"] ;
1133 -> 1134 ;
1135 [label="X[0] <= 9.75\ngini = 0.414\nsamples = 41\nvalue = [12, 29]"] ;
1134 -> 1135 ;
1136 [label="X[0] <= 9.15\ngini = 0.466\nsamples = 27\nvalue = [10, 17]"] ;
1135 -> 1136 ;
1137 [label="X[0] <= 8.85\ngini = 0.401\nsamples = 18\nvalue = [5, 13]"] ;
1136 -> 1137 ;
1138 [label="X[0] <= 8.75\ngini = 0.43\nsamples = 16\nvalue = [5, 11]"] ;
1137 -> 1138 ;
1139 [label="X[1] <= 10.05\ngini = 0.391\nsamples = 15\nvalue = [4, 11]"] ;
1138 -> 1139 ;
1140 [label="X[0] <= 8.25\ngini = 0.219\nsamples = 8\nvalue = [1, 7]"] ;
1139 -> 1140 ;
1141 [label="X[0] <= 7.95\ngini = 0.375\nsamples = 4\nvalue = [1, 3]"] ;
1140 -> 1141 ;
1142 [label="gini = 0.0\nsamples = 3\nvalue = [0, 3]"] ;
1141 -> 1142 ;
1143 [label="gini = 0.0\nsamples = 1\nvalue = [1, 0]"] ;
1141 -> 1143 ;
1144 [label="gini = 0.0\nsamples = 4\nvalue = [0, 4]"] ;
1140 -> 1144 ;
1145 [label="X[0] <= 7.95\ngini = 0.49\nsamples = 7\nvalue = [3, 4]"] ;
1139 -> 1145 ;
1146 [label="gini = 0.0\nsamples = 1\nvalue = [1, 0]"] ;
1145 -> 1146 ;
1147 [label="X[0] <= 8.55\ngini = 0.444\nsamples = 6\nvalue = [2, 4]"] ;
1145 -> 1147 ;
1148 [label="X[0] <= 8.15\ngini = 0.32\nsamples = 5\nvalue = [1, 4]"] ;
1147 -> 1148 ;
1149 [label="gini = 0.0\nsamples = 2\nvalue = [0, 2]"] ;
1148 -> 1149 ;
1150 [label="X[0] <= 8.25\ngini = 0.444\nsamples = 3\nvalue = [1, 2]"] ;
1148 -> 1150 ;
1151 [label="gini = 0.0\nsamples = 1\nvalue = [1, 0]"] ;
1150 -> 1151 ;
1152 [label="gini = 0.0\nsamples = 2\nvalue = [0, 2]"] ;
1150 -> 1152 ;
1153 [label="gini = 0.0\nsamples = 1\nvalue = [1, 0]"] ;
1147 -> 1153 ;
1154 [label="gini = 0.0\nsamples = 1\nvalue = [1, 0]"] ;
1138 -> 1154 ;
1155 [label="gini = 0.0\nsamples = 2\nvalue = [0, 2]"] ;
1137 -> 1155 ;
1156 [label="X[1] <= 9.95\ngini = 0.494\nsamples = 9\nvalue = [5, 4]"] ;
1136 -> 1156 ;
1157 [label="gini = 0.0\nsamples = 1\nvalue = [0, 1]"] ;
1156 -> 1157 ;
1158 [label="X[1] <= 10.05\ngini = 0.469\nsamples = 8\nvalue = [5, 3]"] ;
1156 -> 1158 ;
1159 [label="X[0] <= 9.6\ngini = 0.32\nsamples = 5\nvalue = [4, 1]"] ;
1158 -> 1159 ;
1160 [label="gini = 0.0\nsamples = 4\nvalue = [4, 0]"] ;
1159 -> 1160 ;
1161 [label="gini = 0.0\nsamples = 1\nvalue = [0, 1]"] ;
1159 -> 1161 ;
1162 [label="X[0] <= 9.65\ngini = 0.444\nsamples = 3\nvalue = [1, 2]"] ;
1158 -> 1162 ;
1163 [label="gini = 0.0\nsamples = 2\nvalue = [0, 2]"] ;
1162 -> 1163 ;
1164 [label="gini = 0.0\nsamples = 1\nvalue = [1, 0]"] ;
1162 -> 1164 ;
1165 [label="X[0] <= 10.3\ngini = 0.245\nsamples = 14\nvalue = [2, 12]"] ;
1135 -> 1165 ;
1166 [label="gini = 0.0\nsamples = 9\nvalue = [0, 9]"] ;
1165 -> 1166 ;
1167 [label="X[0] <= 10.6\ngini = 0.48\nsamples = 5\nvalue = [2, 3]"] ;
1165 -> 1167 ;
1168 [label="X[0] <= 10.45\ngini = 0.444\nsamples = 3\nvalue = [2, 1]"] ;
1167 -> 1168 ;
1169 [label="gini = 0.5\nsamples = 2\nvalue = [1, 1]"] ;
1168 -> 1169 ;
1170 [label="gini = 0.0\nsamples = 1\nvalue = [1, 0]"] ;
1168 -> 1170 ;
1171 [label="gini = 0.0\nsamples = 2\nvalue = [0, 2]"] ;
1167 -> 1171 ;
1172 [label="X[0] <= 9.75\ngini = 0.198\nsamples = 9\nvalue = [1, 8]"] ;
1134 -> 1172 ;
1173 [label="gini = 0.0\nsamples = 6\nvalue = [0, 6]"] ;
1172 -> 1173 ;
1174 [label="X[0] <= 10.35\ngini = 0.444\nsamples = 3\nvalue = [1, 2]"] ;
1172 -> 1174 ;
1175 [label="gini = 0.0\nsamples = 1\nvalue = [1, 0]"] ;
1174 -> 1175 ;
1176 [label="gini = 0.0\nsamples = 2\nvalue = [0, 2]"] ;
1174 -> 1176 ;
1177 [label="X[1] <= 10.25\ngini = 0.5\nsamples = 4\nvalue = [2, 2]"] ;
1133 -> 1177 ;
1178 [label="X[0] <= 10.95\ngini = 0.444\nsamples = 3\nvalue = [1, 2]"] ;
1177 -> 1178 ;
1179 [label="gini = 0.0\nsamples = 1\nvalue = [1, 0]"] ;
1178 -> 1179 ;
1180 [label="gini = 0.0\nsamples = 2\nvalue = [0, 2]"] ;
1178 -> 1180 ;
1181 [label="gini = 0.0\nsamples = 1\nvalue = [1, 0]"] ;
1177 -> 1181 ;
1182 [label="gini = 0.0\nsamples = 3\nvalue = [0, 3]"] ;
1132 -> 1182 ;
1183 [label="X[1] <= 9.85\ngini = 0.493\nsamples = 34\nvalue = [15, 19]"] ;
1109 -> 1183 ;
1184 [label="X[0] <= 12.0\ngini = 0.346\nsamples = 9\nvalue = [7, 2]"] ;
1183 -> 1184 ;
1185 [label="gini = 0.0\nsamples = 3\nvalue = [3, 0]"] ;
1184 -> 1185 ;
1186 [label="X[0] <= 12.45\ngini = 0.444\nsamples = 6\nvalue = [4, 2]"] ;
1184 -> 1186 ;
1187 [label="gini = 0.0\nsamples = 1\nvalue = [0, 1]"] ;
1186 -> 1187 ;
1188 [label="X[0] <= 12.75\ngini = 0.32\nsamples = 5\nvalue = [4, 1]"] ;
1186 -> 1188 ;
1189 [label="gini = 0.0\nsamples = 1\nvalue = [1, 0]"] ;
1188 -> 1189 ;
1190 [label="X[0] <= 13.2\ngini = 0.375\nsamples = 4\nvalue = [3, 1]"] ;
1188 -> 1190 ;
1191 [label="gini = 0.444\nsamples = 3\nvalue = [2, 1]"] ;
1190 -> 1191 ;
1192 [label="gini = 0.0\nsamples = 1\nvalue = [1, 0]"] ;
1190 -> 1192 ;
1193 [label="X[1] <= 10.05\ngini = 0.435\nsamples = 25\nvalue = [8, 17]"] ;
1183 -> 1193 ;
1194 [label="X[0] <= 12.35\ngini = 0.231\nsamples = 15\nvalue = [2, 13]"] ;
1193 -> 1194 ;
1195 [label="X[0] <= 12.15\ngini = 0.444\nsamples = 6\nvalue = [2, 4]"] ;
1194 -> 1195 ;
1196 [label="X[0] <= 11.9\ngini = 0.32\nsamples = 5\nvalue = [1, 4]"] ;
1195 -> 1196 ;
1197 [label="gini = 0.0\nsamples = 2\nvalue = [0, 2]"] ;
1196 -> 1197 ;
1198 [label="X[1] <= 9.95\ngini = 0.444\nsamples = 3\nvalue = [1, 2]"] ;
1196 -> 1198 ;
1199 [label="gini = 0.0\nsamples = 2\nvalue = [0, 2]"] ;
1198 -> 1199 ;
1200 [label="gini = 0.0\nsamples = 1\nvalue = [1, 0]"] ;
1198 -> 1200 ;
1201 [label="gini = 0.0\nsamples = 1\nvalue = [1, 0]"] ;
1195 -> 1201 ;
1202 [label="gini = 0.0\nsamples = 9\nvalue = [0, 9]"] ;
1194 -> 1202 ;
1203 [label="X[0] <= 12.2\ngini = 0.48\nsamples = 10\nvalue = [6, 4]"] ;
1193 -> 1203 ;
1204 [label="X[1] <= 10.2\ngini = 0.32\nsamples = 5\nvalue = [4, 1]"] ;
1203 -> 1204 ;
1205 [label="gini = 0.0\nsamples = 3\nvalue = [3, 0]"] ;
1204 -> 1205 ;
1206 [label="X[0] <= 12.0\ngini = 0.5\nsamples = 2\nvalue = [1, 1]"] ;
1204 -> 1206 ;
1207 [label="gini = 0.0\nsamples = 1\nvalue = [0, 1]"] ;
1206 -> 1207 ;
1208 [label="gini = 0.0\nsamples = 1\nvalue = [1, 0]"] ;
1206 -> 1208 ;
1209 [label="X[0] <= 12.6\ngini = 0.48\nsamples = 5\nvalue = [2, 3]"] ;
1203 -> 1209 ;
1210 [label="gini = 0.0\nsamples = 1\nvalue = [0, 1]"] ;
1209 -> 1210 ;
1211 [label="X[1] <= 10.15\ngini = 0.5\nsamples = 4\nvalue = [2, 2]"] ;
1209 -> 1211 ;
1212 [label="gini = 0.0\nsamples = 1\nvalue = [0, 1]"] ;
1211 -> 1212 ;
1213 [label="gini = 0.444\nsamples = 3\nvalue = [2, 1]"] ;
1211 -> 1213 ;
1214 [label="X[0] <= 14.475\ngini = 0.255\nsamples = 20\nvalue = [3, 17]"] ;
1108 -> 1214 ;
1215 [label="gini = 0.0\nsamples = 11\nvalue = [0, 11]"] ;
1214 -> 1215 ;
1216 [label="X[1] <= 10.1\ngini = 0.444\nsamples = 9\nvalue = [3, 6]"] ;
1214 -> 1216 ;
1217 [label="gini = 0.0\nsamples = 4\nvalue = [0, 4]"] ;
1216 -> 1217 ;
1218 [label="X[0] <= 14.85\ngini = 0.48\nsamples = 5\nvalue = [3, 2]"] ;
1216 -> 1218 ;
1219 [label="X[1] <= 10.25\ngini = 0.375\nsamples = 4\nvalue = [3, 1]"] ;
1218 -> 1219 ;
1220 [label="gini = 0.0\nsamples = 1\nvalue = [1, 0]"] ;
1219 -> 1220 ;
1221 [label="X[0] <= 14.6\ngini = 0.444\nsamples = 3\nvalue = [2, 1]"] ;
1219 -> 1221 ;
1222 [label="gini = 0.0\nsamples = 1\nvalue = [1, 0]"] ;
1221 -> 1222 ;
1223 [label="gini = 0.5\nsamples = 2\nvalue = [1, 1]"] ;
1221 -> 1223 ;
1224 [label="gini = 0.0\nsamples = 1\nvalue = [0, 1]"] ;
1218 -> 1224 ;
1225 [label="X[0] <= 7.85\ngini = 0.241\nsamples = 57\nvalue = [8, 49]"] ;
1107 -> 1225 ;
1226 [label="X[0] <= 7.5\ngini = 0.444\nsamples = 3\nvalue = [2, 1]"] ;
1225 -> 1226 ;
1227 [label="gini = 0.0\nsamples = 1\nvalue = [0, 1]"] ;
1226 -> 1227 ;
1228 [label="gini = 0.0\nsamples = 2\nvalue = [2, 0]"] ;
1226 -> 1228 ;
1229 [label="X[0] <= 14.3\ngini = 0.198\nsamples = 54\nvalue = [6, 48]"] ;
1225 -> 1229 ;
1230 [label="X[0] <= 9.1\ngini = 0.174\nsamples = 52\nvalue = [5, 47]"] ;
1229 -> 1230 ;
1231 [label="gini = 0.0\nsamples = 15\nvalue = [0, 15]"] ;
1230 -> 1231 ;
1232 [label="X[0] <= 9.25\ngini = 0.234\nsamples = 37\nvalue = [5, 32]"] ;
1230 -> 1232 ;
1233 [label="gini = 0.0\nsamples = 1\nvalue = [1, 0]"] ;
1232 -> 1233 ;
1234 [label="X[0] <= 10.6\ngini = 0.198\nsamples = 36\nvalue = [4, 32]"] ;
1232 -> 1234 ;
1235 [label="X[0] <= 10.3\ngini = 0.355\nsamples = 13\nvalue = [3, 10]"] ;
1234 -> 1235 ;
1236 [label="X[1] <= 10.45\ngini = 0.198\nsamples = 9\nvalue = [1, 8]"] ;
1235 -> 1236 ;
1237 [label="X[0] <= 9.5\ngini = 0.375\nsamples = 4\nvalue = [1, 3]"] ;
1236 -> 1237 ;
1238 [label="gini = 0.0\nsamples = 2\nvalue = [0, 2]"] ;
1237 -> 1238 ;
1239 [label="X[0] <= 9.9\ngini = 0.5\nsamples = 2\nvalue = [1, 1]"] ;
1237 -> 1239 ;
1240 [label="gini = 0.0\nsamples = 1\nvalue = [1, 0]"] ;
1239 -> 1240 ;
1241 [label="gini = 0.0\nsamples = 1\nvalue = [0, 1]"] ;
1239 -> 1241 ;
1242 [label="gini = 0.0\nsamples = 5\nvalue = [0, 5]"] ;
1236 -> 1242 ;
1243 [label="X[0] <= 10.45\ngini = 0.5\nsamples = 4\nvalue = [2, 2]"] ;
1235 -> 1243 ;
1244 [label="gini = 0.0\nsamples = 1\nvalue = [1, 0]"] ;
1243 -> 1244 ;
1245 [label="X[1] <= 10.45\ngini = 0.444\nsamples = 3\nvalue = [1, 2]"] ;
1243 -> 1245 ;
1246 [label="gini = 0.0\nsamples = 1\nvalue = [0, 1]"] ;
1245 -> 1246 ;
1247 [label="X[1] <= 10.525\ngini = 0.5\nsamples = 2\nvalue = [1, 1]"] ;
1245 -> 1247 ;
1248 [label="gini = 0.0\nsamples = 1\nvalue = [1, 0]"] ;
1247 -> 1248 ;
1249 [label="gini = 0.0\nsamples = 1\nvalue = [0, 1]"] ;
1247 -> 1249 ;
1250 [label="X[0] <= 11.75\ngini = 0.083\nsamples = 23\nvalue = [1, 22]"] ;
1234 -> 1250 ;
1251 [label="X[0] <= 11.55\ngini = 0.18\nsamples = 10\nvalue = [1, 9]"] ;
1250 -> 1251 ;
1252 [label="gini = 0.0\nsamples = 8\nvalue = [0, 8]"] ;
1251 -> 1252 ;
1253 [label="X[1] <= 10.45\ngini = 0.5\nsamples = 2\nvalue = [1, 1]"] ;
1251 -> 1253 ;
1254 [label="gini = 0.0\nsamples = 1\nvalue = [1, 0]"] ;
1253 -> 1254 ;
1255 [label="gini = 0.0\nsamples = 1\nvalue = [0, 1]"] ;
1253 -> 1255 ;
1256 [label="gini = 0.0\nsamples = 13\nvalue = [0, 13]"] ;
1250 -> 1256 ;
1257 [label="X[1] <= 10.45\ngini = 0.5\nsamples = 2\nvalue = [1, 1]"] ;
1229 -> 1257 ;
1258 [label="gini = 0.0\nsamples = 1\nvalue = [0, 1]"] ;
1257 -> 1258 ;
1259 [label="gini = 0.0\nsamples = 1\nvalue = [1, 0]"] ;
1257 -> 1259 ;
1260 [label="X[1] <= 10.85\ngini = 0.451\nsamples = 64\nvalue = [22, 42]"] ;
1106 -> 1260 ;
1261 [label="X[0] <= 8.25\ngini = 0.486\nsamples = 48\nvalue = [20, 28]"] ;
1260 -> 1261 ;
1262 [label="X[0] <= 7.375\ngini = 0.165\nsamples = 11\nvalue = [1, 10]"] ;
1261 -> 1262 ;
1263 [label="X[1] <= 10.7\ngini = 0.5\nsamples = 2\nvalue = [1, 1]"] ;
1262 -> 1263 ;
1264 [label="gini = 0.0\nsamples = 1\nvalue = [0, 1]"] ;
1263 -> 1264 ;
1265 [label="gini = 0.0\nsamples = 1\nvalue = [1, 0]"] ;
1263 -> 1265 ;
1266 [label="gini = 0.0\nsamples = 9\nvalue = [0, 9]"] ;
1262 -> 1266 ;
1267 [label="X[0] <= 9.2\ngini = 0.5\nsamples = 37\nvalue = [19, 18]"] ;
1261 -> 1267 ;
1268 [label="gini = 0.0\nsamples = 7\nvalue = [7, 0]"] ;
1267 -> 1268 ;
1269 [label="X[0] <= 10.5\ngini = 0.48\nsamples = 30\nvalue = [12, 18]"] ;
1267 -> 1269 ;
1270 [label="X[1] <= 10.75\ngini = 0.219\nsamples = 8\nvalue = [1, 7]"] ;
1269 -> 1270 ;
1271 [label="gini = 0.0\nsamples = 6\nvalue = [0, 6]"] ;
1270 -> 1271 ;
1272 [label="X[0] <= 9.85\ngini = 0.5\nsamples = 2\nvalue = [1, 1]"] ;
1270 -> 1272 ;
1273 [label="gini = 0.0\nsamples = 1\nvalue = [1, 0]"] ;
1272 -> 1273 ;
1274 [label="gini = 0.0\nsamples = 1\nvalue = [0, 1]"] ;
1272 -> 1274 ;
1275 [label="X[0] <= 12.0\ngini = 0.5\nsamples = 22\nvalue = [11, 11]"] ;
1269 -> 1275 ;
1276 [label="X[0] <= 11.4\ngini = 0.32\nsamples = 10\nvalue = [8, 2]"] ;
1275 -> 1276 ;
1277 [label="gini = 0.0\nsamples = 4\nvalue = [4, 0]"] ;
1276 -> 1277 ;
1278 [label="X[0] <= 11.55\ngini = 0.444\nsamples = 6\nvalue = [4, 2]"] ;
1276 -> 1278 ;
